{"learner":{"attributes":{"best_iteration":"0","best_score":"25435044.665063486","scikit_learn":"{\"_estimator_type\": \"regressor\"}"},"feature_names":["tahun","bulan_sin","bulan_cos","nama_ikan_encoded","jenis_ikan_encoded","total_kg_lag_1","total_kg_lag_12","total_kg_roll_mean_3","total_kg_roll_mean_12"],"feature_types":["int","float","float","int","int","float","float","float","float"],"gradient_booster":{"model":{"gbtree_model_param":{"num_parallel_tree":"1","num_trees":"51"},"iteration_indptr":[0,1,2,3,4,5,6,7,8,9,10,11,12,13,14,15,16,17,18,19,20,21,22,23,24,25,26,27,28,29,30,31,32,33,34,35,36,37,38,39,40,41,42,43,44,45,46,47,48,49,50,51],"tree_info":[0,0,0,0,0,0,0,0,0,0,0,0,0,0,0,0,0,0,0,0,0,0,0,0,0,0,0,0,0,0,0,0,0,0,0,0,0,0,0,0,0,0,0,0,0,0,0,0,0,0,0],"trees":[{"base_weights":[7.617579E-1,-9.136839E6,9.791647E8,-2.1615148E7,2.0793802E8,2.9400822E9,-1.1502705E6,-2.185668E7,8.3410125E5,-1.972211E7,2.6395996E9,3.9249144E7,-7.207663E4,4.7756862E5,-1.323327E7,-2.2031397E5,-1.842658E7,-2.134492E7,4.2068878E5,1.2487152E7,4.7970108E7,-2.2640372E6,-1.6512342E5,6.6449016E4,-1.8922148E7,-2.1528445E5,-4.89144E4,7.5949516E4,-1.0991008E5,-5.6911367E4,-1.994696E5],"categories":[],"categories_nodes":[],"categories_segments":[],"categories_sizes":[],"default_left":[0,0,0,0,0,0,0,0,0,0,0,0,0,0,0,0,0,0,0,0,0,0,0,0,0,0,0,0,0,0,0],"id":0,"left_children":[1,3,5,7,9,11,13,15,-1,17,19,-1,-1,-1,21,-1,23,25,-1,-1,-1,27,-1,-1,29,-1,-1,-1,-1,-1,-1],"loss_changes":[1.1612518E19,3.4879178E18,2.307118E19,3.2694597E16,3.880353E19,1.1638638E19,5.9504834E15,3.2222563E14,0E0,7.4158344E15,1.2014157E19,0E0,0E0,0E0,2.5036666E14,0E0,9.333372E14,8.795234E13,0E0,0E0,0E0,3.415935E14,0E0,0E0,7.542736E14,0E0,0E0,0E0,0E0,0E0,0E0],"parents":[2147483647,0,0,1,1,2,2,3,3,4,4,5,5,6,6,7,7,9,9,10,10,14,14,16,16,17,17,21,21,24,24],"right_children":[2,4,6,8,10,12,14,16,-1,18,20,-1,-1,-1,22,-1,24,26,-1,-1,-1,28,-1,-1,30,-1,-1,-1,-1,-1,-1],"split_conditions":[2.562321E7,2.023E3,1.5635E5,6.969583E6,1E0,1.2246469E-16,-5E-1,1.52507E5,8.3410125E5,5.3827374E9,7E1,3.9249144E7,-7.207663E4,4.7756862E5,1.622675E6,-2.2031397E5,9.9E2,1.622675E6,4.2068878E5,1.2487152E7,4.7970108E7,2.023E3,-1.6512342E5,6.6449016E4,1.6294575E5,-2.1528445E5,-4.89144E4,7.5949516E4,-1.0991008E5,-5.6911367E4,-1.994696E5],"split_indices":[7,0,6,8,2,1,2,8,0,6,3,0,0,0,5,0,6,5,0,0,0,0,0,0,8,0,0,0,0,0,0],"split_type":[0,0,0,0,0,0,0,0,0,0,0,0,0,0,0,0,0,0,0,0,0,0,0,0,0,0,0,0,0,0,0],"sum_hessian":[1.296E3,1.285E3,1.1E1,1.216E3,6.9E1,3E0,8E0,1.214E3,2E0,6.4E1,5E0,2E0,1E0,1E0,7E0,1.15E3,6.4E1,6.3E1,1E0,4E0,1E0,2E0,5E0,1E0,6.3E1,6.2E1,1E0,1E0,1E0,5E0,5.8E1],"tree_param":{"num_deleted":"0","num_feature":"9","num_nodes":"31","size_leaf_vector":"1"}},{"base_weights":[7.748257E4,-8.998007E6,9.72661E8,-2.1398648E7,2.0672454E8,2.9204756E9,-1.1078249E6,-2.163845E7,8.2854056E5,-1.9522482E7,2.6232799E9,3.8987484E7,-7.171625E4,4.7518078E5,-1.3125823E7,-2.1811273E5,-1.8245236E7,-2.11356E7,4.1858534E5,1.2387256E7,4.7730256E7,-2.252718E6,-1.6374738E5,6.6116766E4,-1.8736932E7,-2.1316578E5,-4.866983E4,7.5569766E4,-1.0936054E5,-5.6437105E4,-1.975087E5],"categories":[],"categories_nodes":[],"categories_segments":[],"categories_sizes":[],"default_left":[0,0,0,0,0,0,0,0,0,0,0,0,0,0,0,0,0,0,0,0,0,0,0,0,0,0,0,0,0,0,0],"id":1,"left_children":[1,3,5,7,9,11,13,15,-1,17,19,-1,-1,-1,21,-1,23,25,-1,-1,-1,27,-1,-1,29,-1,-1,-1,-1,-1,-1],"loss_changes":[1.1456944E19,3.4445998E18,2.2763889E19,3.221789E16,3.8322906E19,1.1484113E19,5.883188E15,3.145634E14,0E0,7.3206687E15,1.1946167E19,0E0,0E0,0E0,2.457187E14,0E0,9.1831555E14,8.468602E13,0E0,0E0,0E0,3.3818613E14,0E0,0E0,7.381782E14,0E0,0E0,0E0,0E0,0E0,0E0],"parents":[2147483647,0,0,1,1,2,2,3,3,4,4,5,5,6,6,7,7,9,9,10,10,14,14,16,16,17,17,21,21,24,24],"right_children":[2,4,6,8,10,12,14,16,-1,18,20,-1,-1,-1,22,-1,24,26,-1,-1,-1,28,-1,-1,30,-1,-1,-1,-1,-1,-1],"split_conditions":[2.562321E7,2.023E3,1.5635E5,6.969583E6,1E0,1.2246469E-16,-5E-1,1.52507E5,8.2854056E5,5.3827374E9,7E1,3.8987484E7,-7.171625E4,4.7518078E5,1.622675E6,-2.1811273E5,9.9E2,1.622675E6,4.1858534E5,1.2387256E7,4.7730256E7,2.023E3,-1.6374738E5,6.6116766E4,1.6294575E5,-2.1316578E5,-4.866983E4,7.5569766E4,-1.0936054E5,-5.6437105E4,-1.975087E5],"split_indices":[7,0,6,8,2,1,2,8,0,6,3,0,0,0,5,0,6,5,0,0,0,0,0,0,8,0,0,0,0,0,0],"split_type":[0,0,0,0,0,0,0,0,0,0,0,0,0,0,0,0,0,0,0,0,0,0,0,0,0,0,0,0,0,0,0],"sum_hessian":[1.296E3,1.285E3,1.1E1,1.216E3,6.9E1,3E0,8E0,1.214E3,2E0,6.4E1,5E0,2E0,1E0,1E0,7E0,1.15E3,6.4E1,6.3E1,1E0,4E0,1E0,2E0,5E0,1E0,6.3E1,6.2E1,1E0,1E0,1E0,5E0,5.8E1],"tree_param":{"num_deleted":"0","num_feature":"9","num_nodes":"31","size_leaf_vector":"1"}},{"base_weights":[1.5372252E5,-8.86083E6,9.6620045E8,-2.1184316E7,2.0551835E8,2.9009997E9,-1.0658966E6,-2.14224E7,8.2301694E5,-1.9324846E7,2.6070666E9,3.872757E7,-7.135767E4,4.728049E5,-1.3019257E7,-2.1593352E5,-1.8065672E7,-2.0928336E7,4.1649244E5,1.2288157E7,4.7491604E7,-2.2414548E6,-1.6238281E5,6.578619E4,-1.855353E7,-2.1106795E5,-4.842648E4,7.519192E4,-1.08813734E5,-5.596679E4,-1.955671E5],"categories":[],"categories_nodes":[],"categories_segments":[],"categories_sizes":[],"default_left":[0,0,0,0,0,0,0,0,0,0,0,0,0,0,0,0,0,0,0,0,0,0,0,0,0,0,0,0,0,0,0],"id":2,"left_children":[1,3,5,7,9,11,13,15,-1,17,19,-1,-1,-1,21,-1,23,25,-1,-1,-1,27,-1,-1,29,-1,-1,-1,-1,-1,-1],"loss_changes":[1.1303459E19,3.4018354E18,2.2460687E19,3.1748192E16,3.7848405E19,1.1331639E19,5.816673E15,3.0707298E14,0E0,7.226785E15,1.1878213E19,0E0,0E0,0E0,2.4115476E14,0E0,9.035473E14,8.150989E13,0E0,0E0,0E0,3.3481273E14,0E0,0E0,7.2242424E14,0E0,0E0,0E0,0E0,0E0,0E0],"parents":[2147483647,0,0,1,1,2,2,3,3,4,4,5,5,6,6,7,7,9,9,10,10,14,14,16,16,17,17,21,21,24,24],"right_children":[2,4,6,8,10,12,14,16,-1,18,20,-1,-1,-1,22,-1,24,26,-1,-1,-1,28,-1,-1,30,-1,-1,-1,-1,-1,-1],"split_conditions":[2.562321E7,2.023E3,1.5635E5,6.969583E6,1E0,1.2246469E-16,-5E-1,1.52507E5,8.2301694E5,5.3827374E9,7E1,3.872757E7,-7.135767E4,4.728049E5,1.622675E6,-2.1593352E5,9.9E2,1.622675E6,4.1649244E5,1.2288157E7,4.7491604E7,2.023E3,-1.6238281E5,6.578619E4,1.6294575E5,-2.1106795E5,-4.842648E4,7.519192E4,-1.08813734E5,-5.596679E4,-1.955671E5],"split_indices":[7,0,6,8,2,1,2,8,0,6,3,0,0,0,5,0,6,5,0,0,0,0,0,0,8,0,0,0,0,0,0],"split_type":[0,0,0,0,0,0,0,0,0,0,0,0,0,0,0,0,0,0,0,0,0,0,0,0,0,0,0,0,0,0,0],"sum_hessian":[1.296E3,1.285E3,1.1E1,1.216E3,6.9E1,3E0,8E0,1.214E3,2E0,6.4E1,5E0,2E0,1E0,1E0,7E0,1.15E3,6.4E1,6.3E1,1E0,4E0,1E0,2E0,5E0,1E0,6.3E1,6.2E1,1E0,1E0,1E0,5E0,5.8E1],"tree_param":{"num_deleted":"0","num_feature":"9","num_nodes":"31","size_leaf_vector":"1"}},{"base_weights":[2.2874122E5,-8.725286E6,9.59783E8,-2.0972126E7,2.0431941E8,2.881654E9,-1.02448225E6,-2.1208508E7,8.175301E5,-1.9129182E7,2.5909594E9,3.8469384E7,-7.100088E4,4.7044088E5,-1.2913564E7,-2.1377606E5,-1.7887874E7,-2.0723106E7,4.1441E5,1.2189852E7,4.7254148E7,-2.2302468E6,-1.6102962E5,6.5457258E4,-1.8371926E7,-2.0899078E5,-4.8184348E4,7.481596E4,-1.0826966E5,-5.5500402E4,-1.9364456E5],"categories":[],"categories_nodes":[],"categories_segments":[],"categories_sizes":[],"default_left":[0,0,0,0,0,0,0,0,0,0,0,0,0,0,0,0,0,0,0,0,0,0,0,0,0,0,0,0,0,0,0],"id":3,"left_children":[1,3,5,7,9,11,13,15,-1,17,19,-1,-1,-1,21,-1,23,25,-1,-1,-1,27,-1,-1,29,-1,-1,-1,-1,-1,-1],"loss_changes":[1.1152035E19,3.3596185E18,2.2161525E19,3.12854E16,3.7379956E19,1.1181195E19,5.7509274E15,2.9985744E14,0E0,7.134166E15,1.1810294E19,0E0,0E0,0E0,2.3667337E14,0E0,8.890217E14,7.842181E13,0E0,0E0,0E0,3.3147296E14,0E0,0E0,7.0699886E14,0E0,0E0,0E0,0E0,0E0,0E0],"parents":[2147483647,0,0,1,1,2,2,3,3,4,4,5,5,6,6,7,7,9,9,10,10,14,14,16,16,17,17,21,21,24,24],"right_children":[2,4,6,8,10,12,14,16,-1,18,20,-1,-1,-1,22,-1,24,26,-1,-1,-1,28,-1,-1,30,-1,-1,-1,-1,-1,-1],"split_conditions":[2.562321E7,2.023E3,1.5635E5,6.969583E6,1E0,1.2246469E-16,-5E-1,1.52507E5,8.175301E5,5.3827374E9,7E1,3.8469384E7,-7.100088E4,4.7044088E5,1.622675E6,-2.1377606E5,9.9E2,1.622675E6,4.1441E5,1.2189852E7,4.7254148E7,2.023E3,-1.6102962E5,6.5457258E4,1.6294575E5,-2.0899078E5,-4.8184348E4,7.481596E4,-1.0826966E5,-5.5500402E4,-1.9364456E5],"split_indices":[7,0,6,8,2,1,2,8,0,6,3,0,0,0,5,0,6,5,0,0,0,0,0,0,8,0,0,0,0,0,0],"split_type":[0,0,0,0,0,0,0,0,0,0,0,0,0,0,0,0,0,0,0,0,0,0,0,0,0,0,0,0,0,0,0],"sum_hessian":[1.296E3,1.285E3,1.1E1,1.216E3,6.9E1,3E0,8E0,1.214E3,2E0,6.4E1,5E0,2E0,1E0,1E0,7E0,1.15E3,6.4E1,6.3E1,1E0,4E0,1E0,2E0,5E0,1E0,6.3E1,6.2E1,1E0,1E0,1E0,5E0,5.8E1],"tree_param":{"num_deleted":"0","num_feature":"9","num_nodes":"31","size_leaf_vector":"1"}},{"base_weights":[3.0254844E5,-8.591361E6,9.5340794E8,-2.076206E7,2.0312766E8,2.8624369E9,-9.835749E5,-2.099675E7,8.1208E5,-1.8935472E7,2.574957E9,3.8212924E7,-7.064588E4,4.6808872E5,-1.280874E7,-2.1164016E5,-1.771182E7,-2.0519894E7,4.123379E5,1.2092334E7,4.7017876E7,-2.219096E6,-1.5968772E5,6.512997E4,-1.81921E7,-2.0693406E5,-4.794343E4,7.4441875E4,-1.0772832E5,-5.5037902E4,-1.9174095E5],"categories":[],"categories_nodes":[],"categories_segments":[],"categories_sizes":[],"default_left":[0,0,0,0,0,0,0,0,0,0,0,0,0,0,0,0,0,0,0,0,0,0,0,0,0,0,0,0,0,0,0],"id":4,"left_children":[1,3,5,7,9,11,13,15,-1,17,19,-1,-1,-1,21,-1,23,25,-1,-1,-1,27,-1,-1,29,-1,-1,-1,-1,-1,-1],"loss_changes":[1.1002644E19,3.3179415E18,2.1866348E19,3.0829584E16,3.6917466E19,1.1032744E19,5.6859445E15,2.9274497E14,0E0,7.042797E15,1.1742419E19,0E0,0E0,0E0,2.3227277E14,0E0,8.7473666E14,7.541533E13,0E0,0E0,0E0,3.281665E14,0E0,0E0,6.9190205E14,0E0,0E0,0E0,0E0,0E0,0E0],"parents":[2147483647,0,0,1,1,2,2,3,3,4,4,5,5,6,6,7,7,9,9,10,10,14,14,16,16,17,17,21,21,24,24],"right_children":[2,4,6,8,10,12,14,16,-1,18,20,-1,-1,-1,22,-1,24,26,-1,-1,-1,28,-1,-1,30,-1,-1,-1,-1,-1,-1],"split_conditions":[2.562321E7,2.023E3,1.5635E5,6.969583E6,1E0,1.2246469E-16,-5E-1,1.52507E5,8.1208E5,5.3827374E9,7E1,3.8212924E7,-7.064588E4,4.6808872E5,1.622675E6,-2.1164016E5,9.9E2,1.622675E6,4.123379E5,1.2092334E7,4.7017876E7,2.023E3,-1.5968772E5,6.512997E4,1.6294575E5,-2.0693406E5,-4.794343E4,7.4441875E4,-1.0772832E5,-5.5037902E4,-1.9174095E5],"split_indices":[7,0,6,8,2,1,2,8,0,6,3,0,0,0,5,0,6,5,0,0,0,0,0,0,8,0,0,0,0,0,0],"split_type":[0,0,0,0,0,0,0,0,0,0,0,0,0,0,0,0,0,0,0,0,0,0,0,0,0,0,0,0,0,0,0],"sum_hessian":[1.296E3,1.285E3,1.1E1,1.216E3,6.9E1,3E0,8E0,1.214E3,2E0,6.4E1,5E0,2E0,1E0,1E0,7E0,1.15E3,6.4E1,6.3E1,1E0,4E0,1E0,2E0,5E0,1E0,6.3E1,6.2E1,1E0,1E0,1E0,5E0,5.8E1],"tree_param":{"num_deleted":"0","num_feature":"9","num_nodes":"31","size_leaf_vector":"1"}},{"base_weights":[3.75162E5,-8.459035E6,9.470753E8,-2.0554094E7,2.0194306E8,2.8433482E9,-9.4317156E5,-2.0787106E7,8.0666606E5,-1.8743694E7,2.5590592E9,3.7958172E7,-7.029266E4,4.6574822E5,-1.2704774E7,-2.095256E5,-1.7537498E7,-2.0318678E7,4.1027622E5,1.1995594E7,4.6782784E7,-2.2080008E6,-1.5835697E5,6.480432E4,-1.8014036E7,-2.0489756E5,-4.7703707E4,7.406967E4,-1.0718968E5,-5.4579254E4,-1.8985603E5],"categories":[],"categories_nodes":[],"categories_segments":[],"categories_sizes":[],"default_left":[0,0,0,0,0,0,0,0,0,0,0,0,0,0,0,0,0,0,0,0,0,0,0,0,0,0,0,0,0,0,0],"id":5,"left_children":[1,3,5,7,9,11,13,15,-1,17,19,-1,-1,-1,21,-1,23,25,-1,-1,-1,27,-1,-1,29,-1,-1,-1,-1,-1,-1],"loss_changes":[1.0855258E19,3.276797E18,2.1575105E19,3.03804E16,3.6460866E19,1.0886262E19,5.621712E15,2.858043E14,0E0,6.952652E15,1.1674597E19,0E0,0E0,0E0,2.2795163E14,0E0,8.6069E14,7.249475E13,0E0,0E0,0E0,3.2489307E14,0E0,0E0,6.771209E14,0E0,0E0,0E0,0E0,0E0,0E0],"parents":[2147483647,0,0,1,1,2,2,3,3,4,4,5,5,6,6,7,7,9,9,10,10,14,14,16,16,17,17,21,21,24,24],"right_children":[2,4,6,8,10,12,14,16,-1,18,20,-1,-1,-1,22,-1,24,26,-1,-1,-1,28,-1,-1,30,-1,-1,-1,-1,-1,-1],"split_conditions":[2.562321E7,2.023E3,1.5635E5,6.969583E6,1E0,1.2246469E-16,-5E-1,1.52507E5,8.0666606E5,5.3827374E9,7E1,3.7958172E7,-7.029266E4,4.6574822E5,1.622675E6,-2.095256E5,9.9E2,1.622675E6,4.1027622E5,1.1995594E7,4.6782784E7,2.023E3,-1.5835697E5,6.480432E4,1.6294575E5,-2.0489756E5,-4.7703707E4,7.406967E4,-1.0718968E5,-5.4579254E4,-1.8985603E5],"split_indices":[7,0,6,8,2,1,2,8,0,6,3,0,0,0,5,0,6,5,0,0,0,0,0,0,8,0,0,0,0,0,0],"split_type":[0,0,0,0,0,0,0,0,0,0,0,0,0,0,0,0,0,0,0,0,0,0,0,0,0,0,0,0,0,0,0],"sum_hessian":[1.296E3,1.285E3,1.1E1,1.216E3,6.9E1,3E0,8E0,1.214E3,2E0,6.4E1,5E0,2E0,1E0,1E0,7E0,1.15E3,6.4E1,6.3E1,1E0,4E0,1E0,2E0,5E0,1E0,6.3E1,6.2E1,1E0,1E0,1E0,5E0,5.8E1],"tree_param":{"num_deleted":"0","num_feature":"9","num_nodes":"31","size_leaf_vector":"1"}},{"base_weights":[4.4659694E5,-8.32829E6,9.407848E8,-2.034821E7,2.0076558E8,2.8243868E9,-9.032651E5,-2.0579554E7,8.012884E5,-1.8553832E7,2.543265E9,3.7705116E7,-6.9941195E4,4.634195E5,-1.2601661E7,-2.0743216E5,-1.7364886E7,-2.0119438E7,4.0822488E5,1.189963E7,4.654887E7,-2.19696E6,-1.5703734E5,6.4480297E4,-1.7837714E7,-2.028811E5,-4.7465188E4,7.369932E4,-1.0665372E5,-5.4124414E4,-1.8798966E5],"categories":[],"categories_nodes":[],"categories_segments":[],"categories_sizes":[],"default_left":[0,0,0,0,0,0,0,0,0,0,0,0,0,0,0,0,0,0,0,0,0,0,0,0,0,0,0,0,0,0,0],"id":6,"left_children":[1,3,5,7,9,11,13,15,-1,17,19,-1,-1,-1,21,-1,23,25,-1,-1,-1,27,-1,-1,29,-1,-1,-1,-1,-1,-1],"loss_changes":[1.0709851E19,3.2361783E18,2.1287737E19,2.993788E16,3.6010081E19,1.0741732E19,5.558225E15,2.790698E14,0E0,6.8637207E15,1.1606832E19,0E0,0E0,0E0,2.2370874E14,0E0,8.468795E14,6.9653632E13,0E0,0E0,0E0,3.216522E14,0E0,0E0,6.626576E14,0E0,0E0,0E0,0E0,0E0,0E0],"parents":[2147483647,0,0,1,1,2,2,3,3,4,4,5,5,6,6,7,7,9,9,10,10,14,14,16,16,17,17,21,21,24,24],"right_children":[2,4,6,8,10,12,14,16,-1,18,20,-1,-1,-1,22,-1,24,26,-1,-1,-1,28,-1,-1,30,-1,-1,-1,-1,-1,-1],"split_conditions":[2.562321E7,2.023E3,1.5635E5,6.969583E6,1E0,1.2246469E-16,-5E-1,1.52507E5,8.012884E5,5.3827374E9,7E1,3.7705116E7,-6.9941195E4,4.634195E5,1.622675E6,-2.0743216E5,9.9E2,1.622675E6,4.0822488E5,1.189963E7,4.654887E7,2.023E3,-1.5703734E5,6.4480297E4,1.6294575E5,-2.028811E5,-4.7465188E4,7.369932E4,-1.0665372E5,-5.4124414E4,-1.8798966E5],"split_indices":[7,0,6,8,2,1,2,8,0,6,3,0,0,0,5,0,6,5,0,0,0,0,0,0,8,0,0,0,0,0,0],"split_type":[0,0,0,0,0,0,0,0,0,0,0,0,0,0,0,0,0,0,0,0,0,0,0,0,0,0,0,0,0,0,0],"sum_hessian":[1.296E3,1.285E3,1.1E1,1.216E3,6.9E1,3E0,8E0,1.214E3,2E0,6.4E1,5E0,2E0,1E0,1E0,7E0,1.15E3,6.4E1,6.3E1,1E0,4E0,1E0,2E0,5E0,1E0,6.3E1,6.2E1,1E0,1E0,1E0,5E0,5.8E1],"tree_param":{"num_deleted":"0","num_feature":"9","num_nodes":"31","size_leaf_vector":"1"}},{"base_weights":[5.1686553E5,-8.1991115E6,9.34536E8,-2.0144386E7,1.9959515E8,2.8055516E9,-8.6385156E5,-2.0374076E7,7.959464E5,-1.8365864E7,2.5275738E9,3.7453748E7,-6.9591484E4,4.6110238E5,-1.2499393E7,-2.0535964E5,-1.719397E7,-1.9922154E7,4.0618375E5,1.1804432E7,4.631613E7,-2.185976E6,-1.5572869E5,6.41579E4,-1.766312E7,-2.008845E5,-4.722786E4,7.333082E4,-1.0612046E5,-5.367339E4,-1.8614161E5],"categories":[],"categories_nodes":[],"categories_segments":[],"categories_sizes":[],"default_left":[0,0,0,0,0,0,0,0,0,0,0,0,0,0,0,0,0,0,0,0,0,0,0,0,0,0,0,0,0,0,0],"id":7,"left_children":[1,3,5,7,9,11,13,15,-1,17,19,-1,-1,-1,21,-1,23,25,-1,-1,-1,27,-1,-1,29,-1,-1,-1,-1,-1,-1],"loss_changes":[1.0566396E19,3.1960783E18,2.1004195E19,2.9501924E16,3.556502E19,1.0599118E19,5.495471E15,2.7243837E14,0E0,6.7759874E15,1.1539137E19,0E0,0E0,0E0,2.1954249E14,0E0,8.332945E14,6.689197E13,0E0,0E0,0E0,3.1844377E14,0E0,0E0,6.484971E14,0E0,0E0,0E0,0E0,0E0,0E0],"parents":[2147483647,0,0,1,1,2,2,3,3,4,4,5,5,6,6,7,7,9,9,10,10,14,14,16,16,17,17,21,21,24,24],"right_children":[2,4,6,8,10,12,14,16,-1,18,20,-1,-1,-1,22,-1,24,26,-1,-1,-1,28,-1,-1,30,-1,-1,-1,-1,-1,-1],"split_conditions":[2.562321E7,2.023E3,1.5635E5,6.969583E6,1E0,1.2246469E-16,-5E-1,1.52507E5,7.959464E5,5.3827374E9,7E1,3.7453748E7,-6.9591484E4,4.6110238E5,1.622675E6,-2.0535964E5,9.9E2,1.622675E6,4.0618375E5,1.1804432E7,4.631613E7,2.023E3,-1.5572869E5,6.41579E4,1.6294575E5,-2.008845E5,-4.722786E4,7.333082E4,-1.0612046E5,-5.367339E4,-1.8614161E5],"split_indices":[7,0,6,8,2,1,2,8,0,6,3,0,0,0,5,0,6,5,0,0,0,0,0,0,8,0,0,0,0,0,0],"split_type":[0,0,0,0,0,0,0,0,0,0,0,0,0,0,0,0,0,0,0,0,0,0,0,0,0,0,0,0,0,0,0],"sum_hessian":[1.296E3,1.285E3,1.1E1,1.216E3,6.9E1,3E0,8E0,1.214E3,2E0,6.4E1,5E0,2E0,1E0,1E0,7E0,1.15E3,6.4E1,6.3E1,1E0,4E0,1E0,2E0,5E0,1E0,6.3E1,6.2E1,1E0,1E0,1E0,5E0,5.8E1],"tree_param":{"num_deleted":"0","num_feature":"9","num_nodes":"31","size_leaf_vector":"1"}},{"base_weights":[5.859839E5,-8.0714795E6,9.2832864E8,-1.9942602E7,1.9843176E8,2.786842E9,-8.2492556E5,-2.0170648E7,7.906401E5,-1.8179774E7,2.5119846E9,3.7204056E7,-6.924352E4,4.587969E5,-1.2397964E7,-2.0262044E5,-1.500975E7,-1.972681E7,4.0415284E5,1.1709998E7,4.6084544E7,-2.175046E6,-1.5443095E5,6.383711E4,-1.6167132E7,-1.9890753E5,-4.699172E4,7.296417E4,-1.0558986E5,-1.7400258E5,-1.7351695E4],"categories":[],"categories_nodes":[],"categories_segments":[],"categories_sizes":[],"default_left":[0,0,0,0,0,0,0,0,0,0,0,0,0,0,0,0,0,0,0,0,0,0,0,0,0,0,0,0,0,0,0],"id":8,"left_children":[1,3,5,7,9,11,13,15,-1,17,19,-1,-1,-1,21,-1,23,25,-1,-1,-1,27,-1,-1,29,-1,-1,-1,-1,-1,-1],"loss_changes":[1.0424866E19,3.1564898E18,2.0724433E19,2.9072427E16,3.5125627E19,1.0458398E19,5.433444E15,2.6893367E14,0E0,6.689431E15,1.1471508E19,0E0,0E0,0E0,2.1545167E14,0E0,7.222165E14,6.4207614E13,0E0,0E0,0E0,3.1526728E14,0E0,0E0,3.9692155E14,0E0,0E0,0E0,0E0,0E0,0E0],"parents":[2147483647,0,0,1,1,2,2,3,3,4,4,5,5,6,6,7,7,9,9,10,10,14,14,16,16,17,17,21,21,24,24],"right_children":[2,4,6,8,10,12,14,16,-1,18,20,-1,-1,-1,22,-1,24,26,-1,-1,-1,28,-1,-1,30,-1,-1,-1,-1,-1,-1],"split_conditions":[2.562321E7,2.023E3,1.5635E5,6.969583E6,1E0,1.2246469E-16,-5E-1,6.961883E5,7.906401E5,5.3827374E9,7E1,3.7204056E7,-6.924352E4,4.587969E5,1.622675E6,-2.0262044E5,9.9E2,1.622675E6,4.0415284E5,1.1709998E7,4.6084544E7,2.023E3,-1.5443095E5,6.383711E4,2.05125E5,-1.9890753E5,-4.699172E4,7.296417E4,-1.0558986E5,-1.7400258E5,-1.7351695E4],"split_indices":[7,0,6,8,2,1,2,7,0,6,3,0,0,0,5,0,6,5,0,0,0,0,0,0,6,0,0,0,0,0,0],"split_type":[0,0,0,0,0,0,0,0,0,0,0,0,0,0,0,0,0,0,0,0,0,0,0,0,0,0,0,0,0,0,0],"sum_hessian":[1.296E3,1.285E3,1.1E1,1.216E3,6.9E1,3E0,8E0,1.214E3,2E0,6.4E1,5E0,2E0,1E0,1E0,7E0,1.19E3,2.4E1,6.3E1,1E0,4E0,1E0,2E0,5E0,1E0,2.3E1,6.2E1,1E0,1E0,1E0,2.1E1,2E0],"tree_param":{"num_deleted":"0","num_feature":"9","num_nodes":"31","size_leaf_vector":"1"}},{"base_weights":[6.54002E5,-7.9453425E6,9.221626E8,-1.9742798E7,1.9727534E8,2.7682573E9,-7.86484E5,-1.9969214E7,7.853692E5,-1.799554E7,2.4964974E9,3.6956028E7,-6.8897305E4,4.565029E5,-1.2297368E7,-2.0128338E5,-1.6844276E7,-1.9533384E7,4.0213206E5,1.1616317E7,4.5854124E7,-2.16417E6,-1.5314405E5,6.3517918E4,-1.730596E7,-1.9695003E5,-4.6756758E4,7.259935E4,-1.050619E5,-5.1537605E4,-1.8248456E5],"categories":[],"categories_nodes":[],"categories_segments":[],"categories_sizes":[],"default_left":[0,0,0,0,0,0,0,0,0,0,0,0,0,0,0,0,0,0,0,0,0,0,0,0,0,0,0,0,0,0,0],"id":9,"left_children":[1,3,5,7,9,11,13,15,-1,17,19,-1,-1,-1,21,-1,23,25,-1,-1,-1,27,-1,-1,29,-1,-1,-1,-1,-1,-1],"loss_changes":[1.0285234E19,3.1174057E18,2.0448396E19,2.8649219E16,3.4691813E19,1.0319543E19,5.3721333E15,2.6511974E14,0E0,6.604036E15,1.1403967E19,0E0,0E0,0E0,2.1143493E14,0E0,8.060258E14,6.1596273E13,0E0,0E0,0E0,3.121225E14,0E0,0E0,6.389687E14,0E0,0E0,0E0,0E0,0E0,0E0],"parents":[2147483647,0,0,1,1,2,2,3,3,4,4,5,5,6,6,7,7,9,9,10,10,14,14,16,16,17,17,21,21,24,24],"right_children":[2,4,6,8,10,12,14,16,-1,18,20,-1,-1,-1,22,-1,24,26,-1,-1,-1,28,-1,-1,30,-1,-1,-1,-1,-1,-1],"split_conditions":[2.562321E7,2.023E3,1.5635E5,6.969583E6,1E0,1.2246469E-16,-5E-1,1.52507E5,7.853692E5,5.3827374E9,7E1,3.6956028E7,-6.8897305E4,4.565029E5,1.622675E6,-2.0128338E5,9.9E2,1.622675E6,4.0213206E5,1.1616317E7,4.5854124E7,2.023E3,-1.5314405E5,6.3517918E4,1.6294575E5,-1.9695003E5,-4.6756758E4,7.259935E4,-1.050619E5,-5.1537605E4,-1.8248456E5],"split_indices":[7,0,6,8,2,1,2,8,0,6,3,0,0,0,5,0,6,5,0,0,0,0,0,0,8,0,0,0,0,0,0],"split_type":[0,0,0,0,0,0,0,0,0,0,0,0,0,0,0,0,0,0,0,0,0,0,0,0,0,0,0,0,0,0,0],"sum_hessian":[1.296E3,1.285E3,1.1E1,1.216E3,6.9E1,3E0,8E0,1.214E3,2E0,6.4E1,5E0,2E0,1E0,1E0,7E0,1.15E3,6.4E1,6.3E1,1E0,4E0,1E0,2E0,5E0,1E0,6.3E1,6.2E1,1E0,1E0,1E0,5E0,5.8E1],"tree_param":{"num_deleted":"0","num_feature":"9","num_nodes":"31","size_leaf_vector":"1"}},{"base_weights":[7.2086325E5,-7.820754E6,9.1603744E8,-1.9545028E7,1.9612586E8,2.7497966E9,-7.4852E5,-1.9769828E7,7.801333E5,-1.7813148E7,2.4811108E9,3.6709656E7,-6.855281E4,4.5422038E5,-1.2197595E7,-1.985966E5,-1.4699409E7,-1.9341858E7,4.001214E5,1.1523387E7,4.5624856E7,-2.15335E6,-1.5186784E5,6.320033E4,-1.5838553E7,-1.950118E5,-4.652298E4,7.223635E4,-1.045366E5,-1.7059973E5,-1.6019456E4],"categories":[],"categories_nodes":[],"categories_segments":[],"categories_sizes":[],"default_left":[0,0,0,0,0,0,0,0,0,0,0,0,0,0,0,0,0,0,0,0,0,0,0,0,0,0,0,0,0,0,0],"id":10,"left_children":[1,3,5,7,9,11,13,15,-1,17,19,-1,-1,-1,21,-1,23,25,-1,-1,-1,27,-1,-1,29,-1,-1,-1,-1,-1,-1],"loss_changes":[1.0147479E19,3.0788217E18,2.0176034E19,2.8232298E16,3.426352E19,1.0182533E19,5.311532E15,2.6151197E14,0E0,6.519786E15,1.133651E19,0E0,0E0,0E0,2.0749068E14,0E0,6.9870474E14,5.90558E13,0E0,0E0,0E0,3.0900907E14,0E0,0E0,3.900045E14,0E0,0E0,0E0,0E0,0E0,0E0],"parents":[2147483647,0,0,1,1,2,2,3,3,4,4,5,5,6,6,7,7,9,9,10,10,14,14,16,16,17,17,21,21,24,24],"right_children":[2,4,6,8,10,12,14,16,-1,18,20,-1,-1,-1,22,-1,24,26,-1,-1,-1,28,-1,-1,30,-1,-1,-1,-1,-1,-1],"split_conditions":[2.562321E7,2.023E3,1.5635E5,6.969583E6,1E0,1.2246469E-16,-5E-1,6.961883E5,7.801333E5,5.3827374E9,7E1,3.6709656E7,-6.855281E4,4.5422038E5,1.622675E6,-1.985966E5,9.9E2,1.622675E6,4.001214E5,1.1523387E7,4.5624856E7,2.023E3,-1.5186784E5,6.320033E4,2.05125E5,-1.950118E5,-4.652298E4,7.223635E4,-1.045366E5,-1.7059973E5,-1.6019456E4],"split_indices":[7,0,6,8,2,1,2,7,0,6,3,0,0,0,5,0,6,5,0,0,0,0,0,0,6,0,0,0,0,0,0],"split_type":[0,0,0,0,0,0,0,0,0,0,0,0,0,0,0,0,0,0,0,0,0,0,0,0,0,0,0,0,0,0,0],"sum_hessian":[1.296E3,1.285E3,1.1E1,1.216E3,6.9E1,3E0,8E0,1.214E3,2E0,6.4E1,5E0,2E0,1E0,1E0,7E0,1.19E3,2.4E1,6.3E1,1E0,4E0,1E0,2E0,5E0,1E0,2.3E1,6.2E1,1E0,1E0,1E0,2.1E1,2E0],"tree_param":{"num_deleted":"0","num_feature":"9","num_nodes":"31","size_leaf_vector":"1"}},{"base_weights":[7.8664944E5,-7.6976295E6,9.0995296E8,-1.9349202E7,1.9498326E8,2.7314588E9,-7.1102844E5,-1.9572394E7,7.7493244E5,-1.7632576E7,2.4658243E9,3.6464924E7,-6.8210055E4,4.519493E5,-1.209864E7,-1.9728806E5,-1.6501606E7,-1.9152212E7,3.9812078E5,1.1431198E7,4.539673E7,-2.1425832E6,-1.5060228E5,6.288433E4,-1.6955956E7,-1.9309261E5,-4.6290367E4,7.187517E4,-1.04013914E5,-4.945315E4,-1.7889989E5],"categories":[],"categories_nodes":[],"categories_segments":[],"categories_sizes":[],"default_left":[0,0,0,0,0,0,0,0,0,0,0,0,0,0,0,0,0,0,0,0,0,0,0,0,0,0,0,0,0,0,0],"id":11,"left_children":[1,3,5,7,9,11,13,15,-1,17,19,-1,-1,-1,21,-1,23,25,-1,-1,-1,27,-1,-1,29,-1,-1,-1,-1,-1,-1],"loss_changes":[1.001157E19,3.0407277E18,1.99073E19,2.7821492E16,3.3840652E19,1.0047342E19,5.2516305E15,2.5804164E14,0E0,6.4366656E15,1.1269143E19,0E0,0E0,0E0,2.0361823E14,0E0,7.7968045E14,5.659049E13,0E0,0E0,0E0,3.0592673E14,0E0,0E0,6.295026E14,0E0,0E0,0E0,0E0,0E0,0E0],"parents":[2147483647,0,0,1,1,2,2,3,3,4,4,5,5,6,6,7,7,9,9,10,10,14,14,16,16,17,17,21,21,24,24],"right_children":[2,4,6,8,10,12,14,16,-1,18,20,-1,-1,-1,22,-1,24,26,-1,-1,-1,28,-1,-1,30,-1,-1,-1,-1,-1,-1],"split_conditions":[2.562321E7,2.023E3,1.5635E5,6.969583E6,1E0,1.2246469E-16,-5E-1,1.52507E5,7.7493244E5,5.3827374E9,7E1,3.6464924E7,-6.8210055E4,4.519493E5,1.622675E6,-1.9728806E5,9.9E2,1.622675E6,3.9812078E5,1.1431198E7,4.539673E7,2.023E3,-1.5060228E5,6.288433E4,1.6294575E5,-1.9309261E5,-4.6290367E4,7.187517E4,-1.04013914E5,-4.945315E4,-1.7889989E5],"split_indices":[7,0,6,8,2,1,2,8,0,6,3,0,0,0,5,0,6,5,0,0,0,0,0,0,8,0,0,0,0,0,0],"split_type":[0,0,0,0,0,0,0,0,0,0,0,0,0,0,0,0,0,0,0,0,0,0,0,0,0,0,0,0,0,0,0],"sum_hessian":[1.296E3,1.285E3,1.1E1,1.216E3,6.9E1,3E0,8E0,1.214E3,2E0,6.4E1,5E0,2E0,1E0,1E0,7E0,1.15E3,6.4E1,6.3E1,1E0,4E0,1E0,2E0,5E0,1E0,6.3E1,6.2E1,1E0,1E0,1E0,5E0,5.8E1],"tree_param":{"num_deleted":"0","num_feature":"9","num_nodes":"31","size_leaf_vector":"1"}},{"base_weights":[8.5130806E5,-7.5760195E6,9.03909E8,-1.9155372E7,1.9384752E8,2.7132434E9,-6.74006E5,-1.937697E7,7.6976625E5,-1.7453808E7,2.4506373E9,3.6221824E7,-6.7869E4,4.4968956E5,-1.2000496E7,-1.946527E5,-1.4395278E7,-1.8964432E7,3.961302E5,1.133975E7,4.5169744E7,-2.13187E6,-1.4934725E5,6.256991E4,-1.5516497E7,-1.9119236E5,-4.6058918E4,7.151579E4,-1.03493836E5,-1.6726361E5,-1.4719989E4],"categories":[],"categories_nodes":[],"categories_segments":[],"categories_sizes":[],"default_left":[0,0,0,0,0,0,0,0,0,0,0,0,0,0,0,0,0,0,0,0,0,0,0,0,0,0,0,0,0,0,0],"id":12,"left_children":[1,3,5,7,9,11,13,15,-1,17,19,-1,-1,-1,21,-1,23,25,-1,-1,-1,27,-1,-1,29,-1,-1,-1,-1,-1,-1],"loss_changes":[9.877489E18,3.0031208E18,1.9642146E19,2.7416838E16,3.3423161E19,9.913953E18,5.19242E15,2.542277E14,0E0,6.3546554E15,1.1201873E19,0E0,0E0,0E0,1.998157E14,0E0,6.759801E14,5.4196045E13,0E0,0E0,0E0,3.0287505E14,0E0,0E0,3.8318463E14,0E0,0E0,0E0,0E0,0E0,0E0],"parents":[2147483647,0,0,1,1,2,2,3,3,4,4,5,5,6,6,7,7,9,9,10,10,14,14,16,16,17,17,21,21,24,24],"right_children":[2,4,6,8,10,12,14,16,-1,18,20,-1,-1,-1,22,-1,24,26,-1,-1,-1,28,-1,-1,30,-1,-1,-1,-1,-1,-1],"split_conditions":[2.562321E7,2.023E3,1.5635E5,6.969583E6,1E0,1.2246469E-16,-5E-1,6.961883E5,7.6976625E5,5.3827374E9,7E1,3.6221824E7,-6.7869E4,4.4968956E5,1.622675E6,-1.946527E5,9.9E2,1.622675E6,3.961302E5,1.133975E7,4.5169744E7,2.023E3,-1.4934725E5,6.256991E4,2.05125E5,-1.9119236E5,-4.6058918E4,7.151579E4,-1.03493836E5,-1.6726361E5,-1.4719989E4],"split_indices":[7,0,6,8,2,1,2,7,0,6,3,0,0,0,5,0,6,5,0,0,0,0,0,0,6,0,0,0,0,0,0],"split_type":[0,0,0,0,0,0,0,0,0,0,0,0,0,0,0,0,0,0,0,0,0,0,0,0,0,0,0,0,0,0,0],"sum_hessian":[1.296E3,1.285E3,1.1E1,1.216E3,6.9E1,3E0,8E0,1.214E3,2E0,6.4E1,5E0,2E0,1E0,1E0,7E0,1.19E3,2.4E1,6.3E1,1E0,4E0,1E0,2E0,5E0,1E0,2.3E1,6.2E1,1E0,1E0,1E0,2.1E1,2E0],"tree_param":{"num_deleted":"0","num_feature":"9","num_nodes":"31","size_leaf_vector":"1"}},{"base_weights":[9.149194E5,-7.45584E6,8.979051E8,-1.8963444E7,1.927186E8,2.6951496E9,-6.374473E5,-1.9183458E7,7.6463444E5,-1.7276826E7,2.4355492E9,3.5980348E7,-6.752966E4,4.4744112E5,-1.1903156E7,-1.9337206E5,-1.616582E7,-1.8778494E7,3.9414956E5,1.1249031E7,4.4943896E7,-2.1212112E6,-1.4810269E5,6.225706E4,-1.6612964E7,-1.8931078E5,-4.582863E4,7.115821E4,-1.02976375E5,-4.7418934E4,-1.7538616E5],"categories":[],"categories_nodes":[],"categories_segments":[],"categories_sizes":[],"default_left":[0,0,0,0,0,0,0,0,0,0,0,0,0,0,0,0,0,0,0,0,0,0,0,0,0,0,0,0,0,0,0],"id":13,"left_children":[1,3,5,7,9,11,13,15,-1,17,19,-1,-1,-1,21,-1,23,25,-1,-1,-1,27,-1,-1,29,-1,-1,-1,-1,-1,-1],"loss_changes":[9.745205E18,2.965992E18,1.9380524E19,2.7018093E16,3.301097E19,9.782331E18,5.1338947E15,2.5110097E14,0E0,6.273747E15,1.1134712E19,0E0,0E0,0E0,1.9608217E14,0E0,7.542242E14,5.1868173E13,0E0,0E0,0E0,2.998539E14,0E0,0E0,6.200956E14,0E0,0E0,0E0,0E0,0E0,0E0],"parents":[2147483647,0,0,1,1,2,2,3,3,4,4,5,5,6,6,7,7,9,9,10,10,14,14,16,16,17,17,21,21,24,24],"right_children":[2,4,6,8,10,12,14,16,-1,18,20,-1,-1,-1,22,-1,24,26,-1,-1,-1,28,-1,-1,30,-1,-1,-1,-1,-1,-1],"split_conditions":[2.562321E7,2.023E3,1.5635E5,6.969583E6,1E0,1.2246469E-16,-5E-1,1.52507E5,7.6463444E5,5.3827374E9,7E1,3.5980348E7,-6.752966E4,4.4744112E5,1.622675E6,-1.9337206E5,9.9E2,1.622675E6,3.9414956E5,1.1249031E7,4.4943896E7,2.023E3,-1.4810269E5,6.225706E4,1.6294575E5,-1.8931078E5,-4.582863E4,7.115821E4,-1.02976375E5,-4.7418934E4,-1.7538616E5],"split_indices":[7,0,6,8,2,1,2,8,0,6,3,0,0,0,5,0,6,5,0,0,0,0,0,0,8,0,0,0,0,0,0],"split_type":[0,0,0,0,0,0,0,0,0,0,0,0,0,0,0,0,0,0,0,0,0,0,0,0,0,0,0,0,0,0,0],"sum_hessian":[1.296E3,1.285E3,1.1E1,1.216E3,6.9E1,3E0,8E0,1.214E3,2E0,6.4E1,5E0,2E0,1E0,1E0,7E0,1.15E3,6.4E1,6.3E1,1E0,4E0,1E0,2E0,5E0,1E0,6.3E1,6.2E1,1E0,1E0,1E0,5E0,5.8E1],"tree_param":{"num_deleted":"0","num_feature":"9","num_nodes":"31","size_leaf_vector":"1"}},{"base_weights":[9.774308E5,-7.337142E6,8.9194106E8,-1.8773472E7,1.9159645E8,2.6771763E9,-6.013491E5,-1.8991916E7,7.5953694E5,-1.7101614E7,2.4205594E9,3.5740476E7,-6.7192E4,4.452039E5,-1.1806616E7,-1.9078711E5,-1.4097237E7,-1.8594384E7,3.9217878E5,1.115904E7,4.471918E7,-2.1106052E6,-1.4686852E5,6.194577E4,-1.5200837E7,-1.8744773E5,-4.559949E4,7.080242E4,-1.024615E5,-1.6399286E5,-1.3452616E4],"categories":[],"categories_nodes":[],"categories_segments":[],"categories_sizes":[],"default_left":[0,0,0,0,0,0,0,0,0,0,0,0,0,0,0,0,0,0,0,0,0,0,0,0,0,0,0,0,0,0,0],"id":14,"left_children":[1,3,5,7,9,11,13,15,-1,17,19,-1,-1,-1,21,-1,23,25,-1,-1,-1,27,-1,-1,29,-1,-1,-1,-1,-1,-1],"loss_changes":[9.614697E18,2.929337E18,1.9122385E19,2.6625258E16,3.2604014E19,9.652452E18,5.076045E15,2.4721832E14,0E0,6.1939205E15,1.1067664E19,0E0,0E0,0E0,1.9241621E14,0E0,6.54014E14,4.9604725E13,0E0,0E0,0E0,2.9686287E14,0E0,0E0,3.764641E14,0E0,0E0,0E0,0E0,0E0,0E0],"parents":[2147483647,0,0,1,1,2,2,3,3,4,4,5,5,6,6,7,7,9,9,10,10,14,14,16,16,17,17,21,21,24,24],"right_children":[2,4,6,8,10,12,14,16,-1,18,20,-1,-1,-1,22,-1,24,26,-1,-1,-1,28,-1,-1,30,-1,-1,-1,-1,-1,-1],"split_conditions":[2.562321E7,2.023E3,1.5635E5,6.969583E6,1E0,1.2246469E-16,-5E-1,6.961883E5,7.5953694E5,5.3827374E9,7E1,3.5740476E7,-6.7192E4,4.452039E5,1.622675E6,-1.9078711E5,9.9E2,1.622675E6,3.9217878E5,1.115904E7,4.471918E7,2.023E3,-1.4686852E5,6.194577E4,2.05125E5,-1.8744773E5,-4.559949E4,7.080242E4,-1.024615E5,-1.6399286E5,-1.3452616E4],"split_indices":[7,0,6,8,2,1,2,7,0,6,3,0,0,0,5,0,6,5,0,0,0,0,0,0,6,0,0,0,0,0,0],"split_type":[0,0,0,0,0,0,0,0,0,0,0,0,0,0,0,0,0,0,0,0,0,0,0,0,0,0,0,0,0,0,0],"sum_hessian":[1.296E3,1.285E3,1.1E1,1.216E3,6.9E1,3E0,8E0,1.214E3,2E0,6.4E1,5E0,2E0,1E0,1E0,7E0,1.19E3,2.4E1,6.3E1,1E0,4E0,1E0,2E0,5E0,1E0,2.3E1,6.2E1,1E0,1E0,1E0,2.1E1,2E0],"tree_param":{"num_deleted":"0","num_feature":"9","num_nodes":"31","size_leaf_vector":"1"}},{"base_weights":[1.038922E6,-7.2198425E6,8.8601664E8,-1.8585364E7,1.9048102E8,2.6593226E9,-5.657053E5,-1.8802248E7,7.5447344E5,-1.6928148E7,2.4056668E9,3.5502204E7,-6.685605E4,4.4297788E5,-1.1710866E7,-1.895338E5,-1.5836781E7,-1.8412082E7,3.902179E5,1.1069767E7,4.4495584E7,-2.1000512E6,-1.4564461E5,6.163604E4,-1.6276844E7,-1.85603E5,-4.537149E4,7.044841E4,-1.0194918E5,-4.5433883E4,-1.7194197E5],"categories":[],"categories_nodes":[],"categories_segments":[],"categories_sizes":[],"default_left":[0,0,0,0,0,0,0,0,0,0,0,0,0,0,0,0,0,0,0,0,0,0,0,0,0,0,0,0,0,0,0],"id":15,"left_children":[1,3,5,7,9,11,13,15,-1,17,19,-1,-1,-1,21,-1,23,25,-1,-1,-1,27,-1,-1,29,-1,-1,-1,-1,-1,-1],"loss_changes":[9.48594E18,2.8931482E18,1.8867686E19,2.6238196E16,3.220221E19,9.5243E18,5.0188626E15,2.4436646E14,0E0,6.1151616E15,1.1000735E19,0E0,0E0,0E0,1.888169E14,0E0,7.2962475E14,4.740785E13,0E0,0E0,0E0,2.9390163E14,0E0,0E0,6.107583E14,0E0,0E0,0E0,0E0,0E0,0E0],"parents":[2147483647,0,0,1,1,2,2,3,3,4,4,5,5,6,6,7,7,9,9,10,10,14,14,16,16,17,17,21,21,24,24],"right_children":[2,4,6,8,10,12,14,16,-1,18,20,-1,-1,-1,22,-1,24,26,-1,-1,-1,28,-1,-1,30,-1,-1,-1,-1,-1,-1],"split_conditions":[2.562321E7,2.023E3,1.5635E5,6.969583E6,1E0,1.2246469E-16,-5E-1,1.52507E5,7.5447344E5,5.3827374E9,7E1,3.5502204E7,-6.685605E4,4.4297788E5,1.622675E6,-1.895338E5,9.9E2,1.622675E6,3.902179E5,1.1069767E7,4.4495584E7,2.023E3,-1.4564461E5,6.163604E4,1.6294575E5,-1.85603E5,-4.537149E4,7.044841E4,-1.0194918E5,-4.5433883E4,-1.7194197E5],"split_indices":[7,0,6,8,2,1,2,8,0,6,3,0,0,0,5,0,6,5,0,0,0,0,0,0,8,0,0,0,0,0,0],"split_type":[0,0,0,0,0,0,0,0,0,0,0,0,0,0,0,0,0,0,0,0,0,0,0,0,0,0,0,0,0,0,0],"sum_hessian":[1.296E3,1.285E3,1.1E1,1.216E3,6.9E1,3E0,8E0,1.214E3,2E0,6.4E1,5E0,2E0,1E0,1E0,7E0,1.15E3,6.4E1,6.3E1,1E0,4E0,1E0,2E0,5E0,1E0,6.3E1,6.2E1,1E0,1E0,1E0,5E0,5.8E1],"tree_param":{"num_deleted":"0","num_feature":"9","num_nodes":"31","size_leaf_vector":"1"}},{"base_weights":[1.0993384E6,-7.1039945E6,8.801316E8,-1.8399174E7,1.8937227E8,2.6415882E9,-5.3051156E5,-1.861451E7,7.4944356E5,-1.6756418E7,2.390871E9,3.5265524E7,-6.6521766E4,4.40763E5,-1.16159E7,-1.8699831E5,-1.3805164E7,-1.823157E7,3.8826678E5,1.0981209E7,4.4273104E7,-2.0895514E6,-1.4443092E5,6.132786E4,-1.4891445E7,-1.8377644E5,-4.514463E4,7.009617E4,-1.0143944E5,-1.6078622E5,-1.2216656E4],"categories":[],"categories_nodes":[],"categories_segments":[],"categories_sizes":[],"default_left":[0,0,0,0,0,0,0,0,0,0,0,0,0,0,0,0,0,0,0,0,0,0,0,0,0,0,0,0,0,0,0],"id":16,"left_children":[1,3,5,7,9,11,13,15,-1,17,19,-1,-1,-1,21,-1,23,25,-1,-1,-1,27,-1,-1,29,-1,-1,-1,-1,-1,-1],"loss_changes":[9.358911E18,2.8574202E18,1.861638E19,2.5856906E16,3.1805505E19,9.397851E18,4.962341E15,2.4038073E14,0E0,6.0374527E15,1.0933922E19,0E0,0E0,0E0,1.8528294E14,0E0,6.327813E14,4.527325E13,0E0,0E0,0E0,2.9096997E14,0E0,0E0,3.6983963E14,0E0,0E0,0E0,0E0,0E0,0E0],"parents":[2147483647,0,0,1,1,2,2,3,3,4,4,5,5,6,6,7,7,9,9,10,10,14,14,16,16,17,17,21,21,24,24],"right_children":[2,4,6,8,10,12,14,16,-1,18,20,-1,-1,-1,22,-1,24,26,-1,-1,-1,28,-1,-1,30,-1,-1,-1,-1,-1,-1],"split_conditions":[2.562321E7,2.023E3,1.5635E5,6.969583E6,1E0,1.2246469E-16,-5E-1,6.961883E5,7.4944356E5,5.3827374E9,7E1,3.5265524E7,-6.6521766E4,4.40763E5,1.622675E6,-1.8699831E5,9.9E2,1.622675E6,3.8826678E5,1.0981209E7,4.4273104E7,2.023E3,-1.4443092E5,6.132786E4,2.05125E5,-1.8377644E5,-4.514463E4,7.009617E4,-1.0143944E5,-1.6078622E5,-1.2216656E4],"split_indices":[7,0,6,8,2,1,2,7,0,6,3,0,0,0,5,0,6,5,0,0,0,0,0,0,6,0,0,0,0,0,0],"split_type":[0,0,0,0,0,0,0,0,0,0,0,0,0,0,0,0,0,0,0,0,0,0,0,0,0,0,0,0,0,0,0],"sum_hessian":[1.296E3,1.285E3,1.1E1,1.216E3,6.9E1,3E0,8E0,1.214E3,2E0,6.4E1,5E0,2E0,1E0,1E0,7E0,1.19E3,2.4E1,6.3E1,1E0,4E0,1E0,2E0,5E0,1E0,2.3E1,6.2E1,1E0,1E0,1E0,2.1E1,2E0],"tree_param":{"num_deleted":"0","num_feature":"9","num_nodes":"31","size_leaf_vector":"1"}},{"base_weights":[1.1587601E6,-6.989514E6,8.742856E8,-1.8214812E7,1.8827018E8,2.623972E9,-4.9576288E5,-1.842861E7,7.4444725E5,-1.6586403E7,2.3761715E9,3.5030424E7,-6.618916E4,4.385592E5,-1.1521713E7,-1.8577173E5,-1.5514355E7,-1.8052832E7,3.8632547E5,1.0893359E7,4.405174E7,-2.0791034E6,-1.4322733E5,6.102122E4,-1.5947458E7,-1.8196786E5,-4.491891E4,6.974569E4,-1.00932234E5,-4.349695E4,-1.6856595E5],"categories":[],"categories_nodes":[],"categories_segments":[],"categories_sizes":[],"default_left":[0,0,0,0,0,0,0,0,0,0,0,0,0,0,0,0,0,0,0,0,0,0,0,0,0,0,0,0,0,0,0],"id":17,"left_children":[1,3,5,7,9,11,13,15,-1,17,19,-1,-1,-1,21,-1,23,25,-1,-1,-1,27,-1,-1,29,-1,-1,-1,-1,-1,-1],"loss_changes":[9.233588E18,2.8221465E18,1.8368419E19,2.5481148E16,3.141383E19,9.273083E18,4.90647E15,2.3780375E14,0E0,5.960783E15,1.0867241E19,0E0,0E0,0E0,1.8181308E14,0E0,7.058532E14,4.319878E13,0E0,0E0,0E0,2.8806755E14,0E0,0E0,6.01493E14,0E0,0E0,0E0,0E0,0E0,0E0],"parents":[2147483647,0,0,1,1,2,2,3,3,4,4,5,5,6,6,7,7,9,9,10,10,14,14,16,16,17,17,21,21,24,24],"right_children":[2,4,6,8,10,12,14,16,-1,18,20,-1,-1,-1,22,-1,24,26,-1,-1,-1,28,-1,-1,30,-1,-1,-1,-1,-1,-1],"split_conditions":[2.562321E7,2.023E3,1.5635E5,6.969583E6,1E0,1.2246469E-16,-5E-1,1.52507E5,7.4444725E5,5.3827374E9,7E1,3.5030424E7,-6.618916E4,4.385592E5,1.622675E6,-1.8577173E5,9.9E2,1.622675E6,3.8632547E5,1.0893359E7,4.405174E7,2.023E3,-1.4322733E5,6.102122E4,1.6294575E5,-1.8196786E5,-4.491891E4,6.974569E4,-1.00932234E5,-4.349695E4,-1.6856595E5],"split_indices":[7,0,6,8,2,1,2,8,0,6,3,0,0,0,5,0,6,5,0,0,0,0,0,0,8,0,0,0,0,0,0],"split_type":[0,0,0,0,0,0,0,0,0,0,0,0,0,0,0,0,0,0,0,0,0,0,0,0,0,0,0,0,0,0,0],"sum_hessian":[1.296E3,1.285E3,1.1E1,1.216E3,6.9E1,3E0,8E0,1.214E3,2E0,6.4E1,5E0,2E0,1E0,1E0,7E0,1.15E3,6.4E1,6.3E1,1E0,4E0,1E0,2E0,5E0,1E0,6.3E1,6.2E1,1E0,1E0,1E0,5E0,5.8E1],"tree_param":{"num_deleted":"0","num_feature":"9","num_nodes":"31","size_leaf_vector":"1"}},{"base_weights":[1.217134E6,-6.8764525E6,8.684784E8,-1.803233E7,1.8717467E8,2.6064735E9,-4.6145556E5,-1.8244602E7,7.394843E5,-1.6418086E7,2.3615672E9,3.4796884E7,-6.58582E4,4.3636638E5,-1.1428298E7,-1.8328478E5,-1.351894E7,-1.787585E7,3.8439384E5,1.0806213E7,4.383148E7,-2.068708E6,-1.4203375E5,6.071611E4,-1.4588197E7,-1.8017706E5,-4.469432E4,6.939696E4,-1.0042758E5,-1.5764239E5,-1.1011443E4],"categories":[],"categories_nodes":[],"categories_segments":[],"categories_sizes":[],"default_left":[0,0,0,0,0,0,0,0,0,0,0,0,0,0,0,0,0,0,0,0,0,0,0,0,0,0,0,0,0,0,0],"id":18,"left_children":[1,3,5,7,9,11,13,15,-1,17,19,-1,-1,-1,21,-1,23,25,-1,-1,-1,27,-1,-1,29,-1,-1,-1,-1,-1,-1],"loss_changes":[9.109944E18,2.7873214E18,1.8123763E19,2.511099E16,3.102711E19,9.1499664E18,4.851244E15,2.3385238E14,0E0,5.885136E15,1.080069E19,0E0,0E0,0E0,1.7840603E14,0E0,6.1225725E14,4.118444E13,0E0,0E0,0E0,2.8519408E14,0E0,0E0,3.6331397E14,0E0,0E0,0E0,0E0,0E0,0E0],"parents":[2147483647,0,0,1,1,2,2,3,3,4,4,5,5,6,6,7,7,9,9,10,10,14,14,16,16,17,17,21,21,24,24],"right_children":[2,4,6,8,10,12,14,16,-1,18,20,-1,-1,-1,22,-1,24,26,-1,-1,-1,28,-1,-1,30,-1,-1,-1,-1,-1,-1],"split_conditions":[2.562321E7,2.023E3,1.5635E5,6.969583E6,1E0,1.2246469E-16,-5E-1,6.961883E5,7.394843E5,5.3827374E9,7E1,3.4796884E7,-6.58582E4,4.3636638E5,1.622675E6,-1.8328478E5,9.9E2,1.622675E6,3.8439384E5,1.0806213E7,4.383148E7,2.023E3,-1.4203375E5,6.071611E4,2.05125E5,-1.8017706E5,-4.469432E4,6.939696E4,-1.0042758E5,-1.5764239E5,-1.1011443E4],"split_indices":[7,0,6,8,2,1,2,7,0,6,3,0,0,0,5,0,6,5,0,0,0,0,0,0,6,0,0,0,0,0,0],"split_type":[0,0,0,0,0,0,0,0,0,0,0,0,0,0,0,0,0,0,0,0,0,0,0,0,0,0,0,0,0,0,0],"sum_hessian":[1.296E3,1.285E3,1.1E1,1.216E3,6.9E1,3E0,8E0,1.214E3,2E0,6.4E1,5E0,2E0,1E0,1E0,7E0,1.19E3,2.4E1,6.3E1,1E0,4E0,1E0,2E0,5E0,1E0,2.3E1,6.2E1,1E0,1E0,1E0,2.1E1,2E0],"tree_param":{"num_deleted":"0","num_feature":"9","num_nodes":"31","size_leaf_vector":"1"}},{"base_weights":[1.2745384E6,-6.7647295E6,8.627099E8,-1.7851638E7,1.8608574E8,2.5890916E9,-4.2758544E5,-1.8062396E7,7.345544E5,-1.625145E7,2.3470577E9,3.4564908E7,-6.5528914E4,4.3418456E5,-1.1335648E7,-1.8208439E5,-1.519841E7,-1.7700604E7,3.8247188E5,1.0719763E7,4.3612324E7,-2.058364E6,-1.4085014E5,6.0412527E4,-1.5624674E7,-1.7840388E5,-4.4470848E4,6.904998E4,-9.992544E4,-4.160712E4,-1.6525675E5],"categories":[],"categories_nodes":[],"categories_segments":[],"categories_sizes":[],"default_left":[0,0,0,0,0,0,0,0,0,0,0,0,0,0,0,0,0,0,0,0,0,0,0,0,0,0,0,0,0,0,0],"id":19,"left_children":[1,3,5,7,9,11,13,15,-1,17,19,-1,-1,-1,21,-1,23,25,-1,-1,-1,27,-1,-1,29,-1,-1,-1,-1,-1,-1],"loss_changes":[8.987963E18,2.7529385E18,1.7882365E19,2.4746227E16,3.0645293E19,9.028488E18,4.7966544E15,2.3148156E14,0E0,5.810496E15,1.0734284E19,0E0,0E0,0E0,1.7506119E14,0E0,6.828826E14,3.923238E13,0E0,0E0,0E0,2.8234927E14,0E0,0E0,5.9230176E14,0E0,0E0,0E0,0E0,0E0,0E0],"parents":[2147483647,0,0,1,1,2,2,3,3,4,4,5,5,6,6,7,7,9,9,10,10,14,14,16,16,17,17,21,21,24,24],"right_children":[2,4,6,8,10,12,14,16,-1,18,20,-1,-1,-1,22,-1,24,26,-1,-1,-1,28,-1,-1,30,-1,-1,-1,-1,-1,-1],"split_conditions":[2.562321E7,2.023E3,1.5635E5,6.969583E6,1E0,1.2246469E-16,-5E-1,1.52507E5,7.345544E5,5.3827374E9,7E1,3.4564908E7,-6.5528914E4,4.3418456E5,1.622675E6,-1.8208439E5,9.9E2,1.622675E6,3.8247188E5,1.0719763E7,4.3612324E7,2.023E3,-1.4085014E5,6.0412527E4,1.6294575E5,-1.7840388E5,-4.4470848E4,6.904998E4,-9.992544E4,-4.160712E4,-1.6525675E5],"split_indices":[7,0,6,8,2,1,2,8,0,6,3,0,0,0,5,0,6,5,0,0,0,0,0,0,8,0,0,0,0,0,0],"split_type":[0,0,0,0,0,0,0,0,0,0,0,0,0,0,0,0,0,0,0,0,0,0,0,0,0,0,0,0,0,0,0],"sum_hessian":[1.296E3,1.285E3,1.1E1,1.216E3,6.9E1,3E0,8E0,1.214E3,2E0,6.4E1,5E0,2E0,1E0,1E0,7E0,1.15E3,6.4E1,6.3E1,1E0,4E0,1E0,2E0,5E0,1E0,6.3E1,6.2E1,1E0,1E0,1E0,5E0,5.8E1],"tree_param":{"num_deleted":"0","num_feature":"9","num_nodes":"31","size_leaf_vector":"1"}},{"base_weights":[1.3309208E6,-6.654394E6,8.569796E8,-1.767279E7,1.8500334E8,2.5718254E9,-3.94147E5,-1.7882042E7,7.296573E5,-1.608648E7,2.3326426E9,3.433447E7,-6.5201273E4,4.3201362E5,-1.1243756E7,-1.79645E5,-1.323845E7,-1.752708E7,3.805595E5,1.0634005E7,4.3394264E7,-2.0480714E6,-1.3967639E5,6.011047E4,-1.4290972E7,-1.7664816E5,-4.42485E4,6.870473E4,-9.94258E4,-1.545602E5,-9.836323E3],"categories":[],"categories_nodes":[],"categories_segments":[],"categories_sizes":[],"default_left":[0,0,0,0,0,0,0,0,0,0,0,0,0,0,0,0,0,0,0,0,0,0,0,0,0,0,0,0,0,0,0],"id":20,"left_children":[1,3,5,7,9,11,13,15,-1,17,19,-1,-1,-1,21,-1,23,25,-1,-1,-1,27,-1,-1,29,-1,-1,-1,-1,-1,-1],"loss_changes":[8.8676157E18,2.7189938E18,1.764418E19,2.4386927E16,3.026831E19,8.9086236E18,4.742694E15,2.274271E14,0E0,5.7368533E15,1.0668018E19,0E0,0E0,0E0,1.7177708E14,0E0,5.924172E14,3.7334003E13,0E0,0E0,0E0,2.7953281E14,0E0,0E0,3.5688548E14,0E0,0E0,0E0,0E0,0E0,0E0],"parents":[2147483647,0,0,1,1,2,2,3,3,4,4,5,5,6,6,7,7,9,9,10,10,14,14,16,16,17,17,21,21,24,24],"right_children":[2,4,6,8,10,12,14,16,-1,18,20,-1,-1,-1,22,-1,24,26,-1,-1,-1,28,-1,-1,30,-1,-1,-1,-1,-1,-1],"split_conditions":[2.562321E7,2.023E3,1.5635E5,6.969583E6,1E0,1.2246469E-16,-5E-1,6.961883E5,7.296573E5,5.3827374E9,7E1,3.433447E7,-6.5201273E4,4.3201362E5,1.622675E6,-1.79645E5,9.9E2,1.622675E6,3.805595E5,1.0634005E7,4.3394264E7,2.023E3,-1.3967639E5,6.011047E4,2.05125E5,-1.7664816E5,-4.42485E4,6.870473E4,-9.94258E4,-1.545602E5,-9.836323E3],"split_indices":[7,0,6,8,2,1,2,7,0,6,3,0,0,0,5,0,6,5,0,0,0,0,0,0,6,0,0,0,0,0,0],"split_type":[0,0,0,0,0,0,0,0,0,0,0,0,0,0,0,0,0,0,0,0,0,0,0,0,0,0,0,0,0,0,0],"sum_hessian":[1.296E3,1.285E3,1.1E1,1.216E3,6.9E1,3E0,8E0,1.214E3,2E0,6.4E1,5E0,2E0,1E0,1E0,7E0,1.19E3,2.4E1,6.3E1,1E0,4E0,1E0,2E0,5E0,1E0,2.3E1,6.2E1,1E0,1E0,1E0,2.1E1,2E0],"tree_param":{"num_deleted":"0","num_feature":"9","num_nodes":"31","size_leaf_vector":"1"}},{"base_weights":[1.3863598E6,-6.5453655E6,8.5128736E8,-1.7495694E7,1.8392742E8,2.5546747E9,-3.6113766E5,-1.7703454E7,7.2479294E5,-1.5923159E7,2.318321E9,3.410558E7,-6.487526E4,4.2985356E5,-1.1152619E7,-1.7847023E5,-1.4888816E7,-1.735526E7,3.7865672E5,1.0548933E7,4.3177292E7,-2.0378314E6,-1.3851242E5,5.9809918E4,-1.5308359E7,-1.7490972E5,-4.4027258E4,6.836121E4,-9.892868E4,-3.9763336E4,-1.6201305E5],"categories":[],"categories_nodes":[],"categories_segments":[],"categories_sizes":[],"default_left":[0,0,0,0,0,0,0,0,0,0,0,0,0,0,0,0,0,0,0,0,0,0,0,0,0,0,0,0,0,0,0],"id":21,"left_children":[1,3,5,7,9,11,13,15,-1,17,19,-1,-1,-1,21,-1,23,25,-1,-1,-1,27,-1,-1,29,-1,-1,-1,-1,-1,-1],"loss_changes":[8.748884E18,2.6854788E18,1.7409172E19,2.403285E16,2.98961E19,8.790349E18,4.6893554E15,2.2526244E14,0E0,5.66419E15,1.0601902E19,0E0,0E0,0E0,1.685525E14,0E0,6.6068516E14,3.5491462E13,0E0,0E0,0E0,2.7674449E14,0E0,0E0,5.8318677E14,0E0,0E0,0E0,0E0,0E0,0E0],"parents":[2147483647,0,0,1,1,2,2,3,3,4,4,5,5,6,6,7,7,9,9,10,10,14,14,16,16,17,17,21,21,24,24],"right_children":[2,4,6,8,10,12,14,16,-1,18,20,-1,-1,-1,22,-1,24,26,-1,-1,-1,28,-1,-1,30,-1,-1,-1,-1,-1,-1],"split_conditions":[2.562321E7,2.023E3,1.5635E5,6.969583E6,1E0,1.2246469E-16,-5E-1,1.52507E5,7.2479294E5,5.3827374E9,7E1,3.410558E7,-6.487526E4,4.2985356E5,1.622675E6,-1.7847023E5,9.9E2,1.622675E6,3.7865672E5,1.0548933E7,4.3177292E7,2.023E3,-1.3851242E5,5.9809918E4,1.6294575E5,-1.7490972E5,-4.4027258E4,6.836121E4,-9.892868E4,-3.9763336E4,-1.6201305E5],"split_indices":[7,0,6,8,2,1,2,8,0,6,3,0,0,0,5,0,6,5,0,0,0,0,0,0,8,0,0,0,0,0,0],"split_type":[0,0,0,0,0,0,0,0,0,0,0,0,0,0,0,0,0,0,0,0,0,0,0,0,0,0,0,0,0,0,0],"sum_hessian":[1.296E3,1.285E3,1.1E1,1.216E3,6.9E1,3E0,8E0,1.214E3,2E0,6.4E1,5E0,2E0,1E0,1E0,7E0,1.15E3,6.4E1,6.3E1,1E0,4E0,1E0,2E0,5E0,1E0,6.3E1,6.2E1,1E0,1E0,1E0,5E0,5.8E1],"tree_param":{"num_deleted":"0","num_feature":"9","num_nodes":"31","size_leaf_vector":"1"}},{"base_weights":[1.4408002E6,-6.437696E6,8.456329E8,-1.7320404E7,1.8285794E8,2.537638E9,-3.2855212E5,-1.7526684E7,7.19961E5,-1.576147E7,2.304092E9,3.387821E7,-6.4550883E4,4.2770428E5,-1.1062228E7,-1.7607752E5,-1.2963576E7,-1.7185128E7,3.7676344E5,1.0464541E7,4.29614E7,-2.0276426E6,-1.3735816E5,5.9510867E4,-1.3999649E7,-1.7318838E5,-4.3807117E4,6.80194E4,-9.843404E4,-1.5153834E5,-8.690656E3],"categories":[],"categories_nodes":[],"categories_segments":[],"categories_sizes":[],"default_left":[0,0,0,0,0,0,0,0,0,0,0,0,0,0,0,0,0,0,0,0,0,0,0,0,0,0,0,0,0,0,0],"id":22,"left_children":[1,3,5,7,9,11,13,15,-1,17,19,-1,-1,-1,21,-1,23,25,-1,-1,-1,27,-1,-1,29,-1,-1,-1,-1,-1,-1],"loss_changes":[8.6317446E18,2.6523907E18,1.7177285E19,2.368403E16,2.9528592E19,8.673645E18,4.6366303E15,2.21208E14,0E0,5.592493E15,1.0535938E19,0E0,0E0,0E0,1.6538678E14,0E0,5.732372E14,3.3702608E13,0E0,0E0,0E0,2.7398395E14,0E0,0E0,3.5055362E14,0E0,0E0,0E0,0E0,0E0,0E0],"parents":[2147483647,0,0,1,1,2,2,3,3,4,4,5,5,6,6,7,7,9,9,10,10,14,14,16,16,17,17,21,21,24,24],"right_children":[2,4,6,8,10,12,14,16,-1,18,20,-1,-1,-1,22,-1,24,26,-1,-1,-1,28,-1,-1,30,-1,-1,-1,-1,-1,-1],"split_conditions":[2.562321E7,2.023E3,1.5635E5,6.969583E6,1E0,1.2246469E-16,-5E-1,6.961883E5,7.19961E5,5.3827374E9,7E1,3.387821E7,-6.4550883E4,4.2770428E5,1.622675E6,-1.7607752E5,9.9E2,1.622675E6,3.7676344E5,1.0464541E7,4.29614E7,2.023E3,-1.3735816E5,5.9510867E4,2.05125E5,-1.7318838E5,-4.3807117E4,6.80194E4,-9.843404E4,-1.5153834E5,-8.690656E3],"split_indices":[7,0,6,8,2,1,2,7,0,6,3,0,0,0,5,0,6,5,0,0,0,0,0,0,6,0,0,0,0,0,0],"split_type":[0,0,0,0,0,0,0,0,0,0,0,0,0,0,0,0,0,0,0,0,0,0,0,0,0,0,0,0,0,0,0],"sum_hessian":[1.296E3,1.285E3,1.1E1,1.216E3,6.9E1,3E0,8E0,1.214E3,2E0,6.4E1,5E0,2E0,1E0,1E0,7E0,1.19E3,2.4E1,6.3E1,1E0,4E0,1E0,2E0,5E0,1E0,2.3E1,6.2E1,1E0,1E0,1E0,2.1E1,2E0],"tree_param":{"num_deleted":"0","num_feature":"9","num_nodes":"31","size_leaf_vector":"1"}},{"base_weights":[1.4943211E6,-6.331305E6,8.4001606E8,-1.7146836E7,1.8179488E8,2.520715E9,-2.9638544E5,-1.7351644E7,7.1516125E5,-1.5601398E7,2.2899553E9,3.365235E7,-6.4228133E4,4.2556575E5,-1.0972578E7,-1.7492784E5,-1.4585445E7,-1.7016668E7,3.7487962E5,1.0380825E7,4.2746596E7,-2.017504E6,-1.3621352E5,5.921332E4,-1.4998384E7,-1.71484E5,-4.358808E4,6.76793E4,-9.794186E4,-3.7964656E4,-1.5883352E5],"categories":[],"categories_nodes":[],"categories_segments":[],"categories_sizes":[],"default_left":[0,0,0,0,0,0,0,0,0,0,0,0,0,0,0,0,0,0,0,0,0,0,0,0,0,0,0,0,0,0,0],"id":23,"left_children":[1,3,5,7,9,11,13,15,-1,17,19,-1,-1,-1,21,-1,23,25,-1,-1,-1,27,-1,-1,29,-1,-1,-1,-1,-1,-1],"loss_changes":[8.516178E18,2.6197214E18,1.6948495E19,2.334033E16,2.9165738E19,8.558493E18,4.584513E15,2.1924949E14,0E0,5.5217485E15,1.0470137E19,0E0,0E0,0E0,1.6227856E14,0E0,6.392329E14,3.1967442E13,0E0,0E0,0E0,2.7125097E14,0E0,0E0,5.741534E14,0E0,0E0,0E0,0E0,0E0,0E0],"parents":[2147483647,0,0,1,1,2,2,3,3,4,4,5,5,6,6,7,7,9,9,10,10,14,14,16,16,17,17,21,21,24,24],"right_children":[2,4,6,8,10,12,14,16,-1,18,20,-1,-1,-1,22,-1,24,26,-1,-1,-1,28,-1,-1,30,-1,-1,-1,-1,-1,-1],"split_conditions":[2.562321E7,2.023E3,1.5635E5,6.969583E6,1E0,1.2246469E-16,-5E-1,1.52507E5,7.1516125E5,5.3827374E9,7E1,3.365235E7,-6.4228133E4,4.2556575E5,1.622675E6,-1.7492784E5,9.9E2,1.622675E6,3.7487962E5,1.0380825E7,4.2746596E7,2.023E3,-1.3621352E5,5.921332E4,1.6294575E5,-1.71484E5,-4.358808E4,6.76793E4,-9.794186E4,-3.7964656E4,-1.5883352E5],"split_indices":[7,0,6,8,2,1,2,8,0,6,3,0,0,0,5,0,6,5,0,0,0,0,0,0,8,0,0,0,0,0,0],"split_type":[0,0,0,0,0,0,0,0,0,0,0,0,0,0,0,0,0,0,0,0,0,0,0,0,0,0,0,0,0,0,0],"sum_hessian":[1.296E3,1.285E3,1.1E1,1.216E3,6.9E1,3E0,8E0,1.214E3,2E0,6.4E1,5E0,2E0,1E0,1E0,7E0,1.15E3,6.4E1,6.3E1,1E0,4E0,1E0,2E0,5E0,1E0,6.3E1,6.2E1,1E0,1E0,1E0,5E0,5.8E1],"tree_param":{"num_deleted":"0","num_feature":"9","num_nodes":"31","size_leaf_vector":"1"}},{"base_weights":[1.5468694E6,-6.2262425E6,8.344365E8,-1.6975036E7,1.8073818E8,2.5039048E9,-2.6463388E5,-1.7178386E7,7.1039356E5,-1.5442925E7,2.2759104E9,3.3428E7,-6.3906992E4,4.234379E5,-1.0883661E7,-1.7258088E5,-1.2694211E7,-1.6849862E7,3.7300522E5,1.0297778E7,4.2532864E7,-2.0074174E6,-1.3507839E5,5.891725E4,-1.3714113E7,-1.6979638E5,-4.337014E4,6.73409E4,-9.745216E4,-1.485757E5,-7.5738296E3],"categories":[],"categories_nodes":[],"categories_segments":[],"categories_sizes":[],"default_left":[0,0,0,0,0,0,0,0,0,0,0,0,0,0,0,0,0,0,0,0,0,0,0,0,0,0,0,0,0,0,0],"id":24,"left_children":[1,3,5,7,9,11,13,15,-1,17,19,-1,-1,-1,21,-1,23,25,-1,-1,-1,27,-1,-1,29,-1,-1,-1,-1,-1,-1],"loss_changes":[8.40216E18,2.5874678E18,1.6722747E19,2.300168E16,2.8807469E19,8.444863E18,4.532996E15,2.1516068E14,0E0,5.4519445E15,1.0404496E19,0E0,0E0,0E0,1.5922685E14,0E0,5.546961E14,3.0285962E13,0E0,0E0,0E0,2.6854523E14,0E0,0E0,3.443184E14,0E0,0E0,0E0,0E0,0E0,0E0],"parents":[2147483647,0,0,1,1,2,2,3,3,4,4,5,5,6,6,7,7,9,9,10,10,14,14,16,16,17,17,21,21,24,24],"right_children":[2,4,6,8,10,12,14,16,-1,18,20,-1,-1,-1,22,-1,24,26,-1,-1,-1,28,-1,-1,30,-1,-1,-1,-1,-1,-1],"split_conditions":[2.562321E7,2.023E3,1.5635E5,6.969583E6,1E0,1.2246469E-16,-5E-1,6.961883E5,7.1039356E5,5.3827374E9,7E1,3.3428E7,-6.3906992E4,4.234379E5,1.622675E6,-1.7258088E5,9.9E2,1.622675E6,3.7300522E5,1.0297778E7,4.2532864E7,2.023E3,-1.3507839E5,5.891725E4,2.05125E5,-1.6979638E5,-4.337014E4,6.73409E4,-9.745216E4,-1.485757E5,-7.5738296E3],"split_indices":[7,0,6,8,2,1,2,7,0,6,3,0,0,0,5,0,6,5,0,0,0,0,0,0,6,0,0,0,0,0,0],"split_type":[0,0,0,0,0,0,0,0,0,0,0,0,0,0,0,0,0,0,0,0,0,0,0,0,0,0,0,0,0,0,0],"sum_hessian":[1.296E3,1.285E3,1.1E1,1.216E3,6.9E1,3E0,8E0,1.214E3,2E0,6.4E1,5E0,2E0,1E0,1E0,7E0,1.19E3,2.4E1,6.3E1,1E0,4E0,1E0,2E0,5E0,1E0,2.3E1,6.2E1,1E0,1E0,1E0,2.1E1,2E0],"tree_param":{"num_deleted":"0","num_feature":"9","num_nodes":"31","size_leaf_vector":"1"}},{"base_weights":[1.5985188E6,-6.122433E6,8.2889395E8,-1.6804926E7,1.7968779E8,2.487207E9,-2.33293E5,-1.7006824E7,7.0565756E5,-1.5286037E7,2.2619564E9,3.3205148E7,-6.3587465E4,4.2132075E5,-1.0795474E7,-1.7145578E5,-1.4288175E7,-1.6684695E7,3.711402E5,1.0215396E7,4.23202E7,-1.99738E6,-1.3395275E5,5.862266E4,-1.4694624E7,-1.6812536E5,-4.315329E4,6.7004195E4,-9.69649E4,-3.621012E4,-1.5571692E5],"categories":[],"categories_nodes":[],"categories_segments":[],"categories_sizes":[],"default_left":[0,0,0,0,0,0,0,0,0,0,0,0,0,0,0,0,0,0,0,0,0,0,0,0,0,0,0,0,0,0,0],"id":25,"left_children":[1,3,5,7,9,11,13,15,-1,17,19,-1,-1,-1,21,-1,23,25,-1,-1,-1,27,-1,-1,29,-1,-1,-1,-1,-1,-1],"loss_changes":[8.2896734E18,2.5556218E18,1.6500008E19,2.2668047E16,2.845373E19,8.33275E18,4.482072E15,2.1333962E14,0E0,5.3830683E15,1.0339022E19,0E0,0E0,0E0,1.5623091E14,0E0,6.1850106E14,2.8653874E13,0E0,0E0,0E0,2.6586651E14,0E0,0E0,5.6520266E14,0E0,0E0,0E0,0E0,0E0,0E0],"parents":[2147483647,0,0,1,1,2,2,3,3,4,4,5,5,6,6,7,7,9,9,10,10,14,14,16,16,17,17,21,21,24,24],"right_children":[2,4,6,8,10,12,14,16,-1,18,20,-1,-1,-1,22,-1,24,26,-1,-1,-1,28,-1,-1,30,-1,-1,-1,-1,-1,-1],"split_conditions":[2.562321E7,2.023E3,1.5635E5,6.969583E6,1E0,1.2246469E-16,-5E-1,1.52507E5,7.0565756E5,5.3827374E9,7E1,3.3205148E7,-6.3587465E4,4.2132075E5,1.622675E6,-1.7145578E5,9.9E2,1.622675E6,3.711402E5,1.0215396E7,4.23202E7,2.023E3,-1.3395275E5,5.862266E4,1.6294575E5,-1.6812536E5,-4.315329E4,6.7004195E4,-9.69649E4,-3.621012E4,-1.5571692E5],"split_indices":[7,0,6,8,2,1,2,8,0,6,3,0,0,0,5,0,6,5,0,0,0,0,0,0,8,0,0,0,0,0,0],"split_type":[0,0,0,0,0,0,0,0,0,0,0,0,0,0,0,0,0,0,0,0,0,0,0,0,0,0,0,0,0,0,0],"sum_hessian":[1.296E3,1.285E3,1.1E1,1.216E3,6.9E1,3E0,8E0,1.214E3,2E0,6.4E1,5E0,2E0,1E0,1E0,7E0,1.15E3,6.4E1,6.3E1,1E0,4E0,1E0,2E0,5E0,1E0,6.3E1,6.2E1,1E0,1E0,1E0,5E0,5.8E1],"tree_param":{"num_deleted":"0","num_feature":"9","num_nodes":"31","size_leaf_vector":"1"}},{"base_weights":[1.6492229E6,-6.01992E6,8.233882E8,-1.6636547E7,1.7864371E8,2.4706202E9,-2.0235967E5,-1.6837006E7,7.0095325E5,-1.5130717E7,2.2480927E9,3.298378E7,-6.3269523E4,4.1921416E5,-1.0708009E7,-1.6915372E7,-1.2430244E7,-1.6521148E7,3.6928447E5,1.0133673E7,4.21086E7,-1.9873934E6,-1.3283648E5,-1.6984339E5,-1.3980488E7,5.8329547E4,-1.343425E7,-1.6647078E5,-4.293752E4,6.666918E4,-9.648008E4,-1.6469475E5,-2.3828986E4,-1.4567111E5,-6.48523E3],"categories":[],"categories_nodes":[],"categories_segments":[],"categories_sizes":[],"default_left":[0,0,0,0,0,0,0,0,0,0,0,0,0,0,0,0,0,0,0,0,0,0,0,0,0,0,0,0,0,0,0,0,0,0,0],"id":26,"left_children":[1,3,5,7,9,11,13,15,-1,17,19,-1,-1,-1,21,23,25,27,-1,-1,-1,29,-1,-1,31,-1,33,-1,-1,-1,-1,-1,-1,-1,-1],"loss_changes":[8.1786947E18,2.5241813E18,1.6280236E19,2.2339293E16,2.8104458E19,8.2221194E18,4.4317333E15,2.0931953E14,0E0,5.315107E15,1.0273722E19,0E0,0E0,0E0,1.532894E14,3.6421323E12,5.3677052E14,2.7069031E13,0E0,0E0,0E0,2.632145E14,0E0,0E0,9.1334036E14,0E0,3.38179E14,0E0,0E0,0E0,0E0,0E0,0E0,0E0,0E0],"parents":[2147483647,0,0,1,1,2,2,3,3,4,4,5,5,6,6,7,7,9,9,10,10,14,14,15,15,16,16,17,17,21,21,24,24,26,26],"right_children":[2,4,6,8,10,12,14,16,-1,18,20,-1,-1,-1,22,24,26,28,-1,-1,-1,30,-1,-1,32,-1,34,-1,-1,-1,-1,-1,-1,-1,-1],"split_conditions":[2.562321E7,2.023E3,1.5635E5,6.969583E6,1E0,1.2246469E-16,-5E-1,6.961883E5,7.0095325E5,5.3827374E9,7E1,3.298378E7,-6.3269523E4,4.1921416E5,1.622675E6,1.65E5,9.9E2,1.622675E6,3.6928447E5,1.0133673E7,4.21086E7,2.023E3,-1.3283648E5,-1.6984339E5,2.022E3,5.8329547E4,2.05125E5,-1.6647078E5,-4.293752E4,6.666918E4,-9.648008E4,-1.6469475E5,-2.3828986E4,-1.4567111E5,-6.48523E3],"split_indices":[7,0,6,8,2,1,2,7,0,6,3,0,0,0,5,6,6,5,0,0,0,0,0,0,0,0,6,0,0,0,0,0,0,0,0],"split_type":[0,0,0,0,0,0,0,0,0,0,0,0,0,0,0,0,0,0,0,0,0,0,0,0,0,0,0,0,0,0,0,0,0,0,0],"sum_hessian":[1.296E3,1.285E3,1.1E1,1.216E3,6.9E1,3E0,8E0,1.214E3,2E0,6.4E1,5E0,2E0,1E0,1E0,7E0,1.19E3,2.4E1,6.3E1,1E0,4E0,1E0,2E0,5E0,1.158E3,3.2E1,1E0,2.3E1,6.2E1,1E0,1E0,1E0,2.6E1,6E0,2.1E1,2E0],"tree_param":{"num_deleted":"0","num_feature":"9","num_nodes":"35","size_leaf_vector":"1"}},{"base_weights":[1.6989055E6,-5.918779E6,8.1791917E8,-1.6469976E7,1.7760587E8,2.454144E9,-1.7182922E5,-1.6669008E7,6.9628025E5,-1.4976951E7,2.2343188E9,3.276389E7,-6.295317E4,4.1711806E5,-1.062126E7,-1.6804981E5,-1.4004784E7,-1.635921E7,3.6743806E5,1.0052604E7,4.1898056E7,-1.9774566E6,-1.3172952E5,5.80379E4,-1.4404977E7,-1.648325E5,-4.272283E4,6.633583E4,-9.599768E4,-3.4736363E4,-1.5272486E5],"categories":[],"categories_nodes":[],"categories_segments":[],"categories_sizes":[],"default_left":[0,0,0,0,0,0,0,0,0,0,0,0,0,0,0,0,0,0,0,0,0,0,0,0,0,0,0,0,0,0,0],"id":27,"left_children":[1,3,5,7,9,11,13,15,-1,17,19,-1,-1,-1,21,-1,23,25,-1,-1,-1,27,-1,-1,29,-1,-1,-1,-1,-1,-1],"loss_changes":[8.0692086E18,2.4931418E18,1.6063392E19,2.2015453E16,2.7759597E19,8.112962E18,4.381973E15,2.0478404E14,0E0,5.248044E15,1.0208598E19,0E0,0E0,0E0,1.504017E14,0E0,5.988752E14,2.5532507E13,0E0,0E0,0E0,2.6058894E14,0E0,0E0,5.5386288E14,0E0,0E0,0E0,0E0,0E0,0E0],"parents":[2147483647,0,0,1,1,2,2,3,3,4,4,5,5,6,6,7,7,9,9,10,10,14,14,16,16,17,17,21,21,24,24],"right_children":[2,4,6,8,10,12,14,16,-1,18,20,-1,-1,-1,22,-1,24,26,-1,-1,-1,28,-1,-1,30,-1,-1,-1,-1,-1,-1],"split_conditions":[2.562321E7,2.023E3,1.5635E5,6.969583E6,1E0,1.2246469E-16,-5E-1,1.52507E5,6.9628025E5,5.3827374E9,7E1,3.276389E7,-6.295317E4,4.1711806E5,1.622675E6,-1.6804981E5,9.9E2,1.622675E6,3.6743806E5,1.0052604E7,4.1898056E7,2.023E3,-1.3172952E5,5.80379E4,1.6294575E5,-1.648325E5,-4.272283E4,6.633583E4,-9.599768E4,-3.4736363E4,-1.5272486E5],"split_indices":[7,0,6,8,2,1,2,8,0,6,3,0,0,0,5,0,6,5,0,0,0,0,0,0,8,0,0,0,0,0,0],"split_type":[0,0,0,0,0,0,0,0,0,0,0,0,0,0,0,0,0,0,0,0,0,0,0,0,0,0,0,0,0,0,0],"sum_hessian":[1.296E3,1.285E3,1.1E1,1.216E3,6.9E1,3E0,8E0,1.214E3,2E0,6.4E1,5E0,2E0,1E0,1E0,7E0,1.15E3,6.4E1,6.3E1,1E0,4E0,1E0,2E0,5E0,1E0,6.3E1,6.2E1,1E0,1E0,1E0,5E0,5.8E1],"tree_param":{"num_deleted":"0","num_feature":"9","num_nodes":"31","size_leaf_vector":"1"}},{"base_weights":[1.7478118E6,-5.8187595E6,8.1248634E8,-1.6304949E7,1.7657426E8,2.437778E9,-1.4169633E5,-1.6502563E7,6.916384E7,-1.4824722E7,2.220634E9,3.2545464E7,-6.2638402E4,4.1503247E5,-1.053522E7,-1.6579619E7,-1.2171509E7,8.197858E5,2.1767169E5,-1.6198861E7,3.6560088E5,9.972183E6,4.1688564E7,-1.9675686E6,-1.3063176E5,-1.664737E5,-1.3697697E7,5.7747707E4,-1.3159886E7,-1.6321036E5,-4.250922E4,6.600415E4,-9.551768E4,-1.6160406E5,-2.2418562E4,-1.4282278E5,-5.42383E3],"categories":[],"categories_nodes":[],"categories_segments":[],"categories_sizes":[],"default_left":[0,0,0,0,0,0,0,0,0,0,0,0,0,0,0,0,0,0,0,0,0,0,0,0,0,0,0,0,0,0,0,0,0,0,0,0,0],"id":28,"left_children":[1,3,5,7,9,11,13,15,17,19,21,-1,-1,-1,23,25,27,-1,-1,29,-1,-1,-1,31,-1,-1,33,-1,35,-1,-1,-1,-1,-1,-1,-1,-1],"loss_changes":[7.961188E18,2.462493E18,1.5849434E19,2.169632E16,2.7419087E19,8.005254E18,4.3327856E15,2.0368453E14,3.7687264E13,5.1818716E15,1.0143659E19,0E0,0E0,0E0,1.4756642E14,4.5354855E12,5.1943764E14,0E0,0E0,2.40443E13,0E0,0E0,0E0,2.579895E14,0E0,0E0,8.9478074E14,0E0,3.3213653E14,0E0,0E0,0E0,0E0,0E0,0E0,0E0,0E0],"parents":[2147483647,0,0,1,1,2,2,3,3,4,4,5,5,6,6,7,7,8,8,9,9,10,10,14,14,15,15,16,16,19,19,23,23,26,26,28,28],"right_children":[2,4,6,8,10,12,14,16,18,20,22,-1,-1,-1,24,26,28,-1,-1,30,-1,-1,-1,32,-1,-1,34,-1,36,-1,-1,-1,-1,-1,-1,-1,-1],"split_conditions":[2.562321E7,2.023E3,1.5635E5,6.969583E6,1E0,1.2246469E-16,-5E-1,6.961883E5,-2.4492937E-16,5.3827374E9,7E1,3.2545464E7,-6.2638402E4,4.1503247E5,1.622675E6,1.65E5,9.9E2,8.197858E5,2.1767169E5,1.622675E6,3.6560088E5,9.972183E6,4.1688564E7,2.023E3,-1.3063176E5,-1.664737E5,2.022E3,5.7747707E4,2.05125E5,-1.6321036E5,-4.250922E4,6.600415E4,-9.551768E4,-1.6160406E5,-2.2418562E4,-1.4282278E5,-5.42383E3],"split_indices":[7,0,6,8,2,1,2,7,1,6,3,0,0,0,5,6,6,0,0,5,0,0,0,0,0,0,0,0,6,0,0,0,0,0,0,0,0],"split_type":[0,0,0,0,0,0,0,0,0,0,0,0,0,0,0,0,0,0,0,0,0,0,0,0,0,0,0,0,0,0,0,0,0,0,0,0,0],"sum_hessian":[1.296E3,1.285E3,1.1E1,1.216E3,6.9E1,3E0,8E0,1.214E3,2E0,6.4E1,5E0,2E0,1E0,1E0,7E0,1.19E3,2.4E1,1E0,1E0,6.3E1,1E0,4E0,1E0,2E0,5E0,1.158E3,3.2E1,1E0,2.3E1,6.2E1,1E0,1E0,1E0,2.6E1,6E0,2.1E1,2E0],"tree_param":{"num_deleted":"0","num_feature":"9","num_nodes":"37","size_leaf_vector":"1"}},{"base_weights":[1.7959892E6,-5.719812E6,8.0708966E8,-1.6141409E7,1.755488E8,2.421521E9,-1.11959445E5,-1.63379E7,6.881802E7,-1.4674015E7,2.207038E9,3.2328496E7,-6.2325215E4,4.1295728E5,-1.0449886E7,-1.6414117E7,-1.2053415E7,8.1568694E5,2.1658333E5,-1.6040087E7,3.6377288E5,9.892406E6,4.148012E7,-1.9577314E6,-1.2954316E5,-1.6481039E5,-1.3566296E7,5.745897E4,-1.3034465E7,-1.6160417E5,-4.2296668E4,6.5674125E4,-9.50401E4,-1.6004789E5,-2.2226404E4,-1.4145948E5,-5.38767E3],"categories":[],"categories_nodes":[],"categories_segments":[],"categories_sizes":[],"default_left":[0,0,0,0,0,0,0,0,0,0,0,0,0,0,0,0,0,0,0,0,0,0,0,0,0,0,0,0,0,0,0,0,0,0,0,0,0],"id":29,"left_children":[1,3,5,7,9,11,13,15,17,19,21,-1,-1,-1,23,25,27,-1,-1,29,-1,-1,-1,31,-1,-1,33,-1,35,-1,-1,-1,-1,-1,-1,-1,-1],"loss_changes":[7.854615E18,2.4322272E18,1.563833E19,2.1440683E16,2.7082878E19,7.8989707E18,4.2841625E15,1.9890853E14,3.7311455E13,5.1165774E15,1.0078895E19,0E0,0E0,0E0,1.4478301E14,3.401614E12,5.1144497E14,0E0,0E0,2.2600118E13,0E0,0E0,0E0,2.554161E14,0E0,0E0,8.7725405E14,0E0,3.2570884E14,0E0,0E0,0E0,0E0,0E0,0E0,0E0,0E0],"parents":[2147483647,0,0,1,1,2,2,3,3,4,4,5,5,6,6,7,7,8,8,9,9,10,10,14,14,15,15,16,16,19,19,23,23,26,26,28,28],"right_children":[2,4,6,8,10,12,14,16,18,20,22,-1,-1,-1,24,26,28,-1,-1,30,-1,-1,-1,32,-1,-1,34,-1,36,-1,-1,-1,-1,-1,-1,-1,-1],"split_conditions":[2.562321E7,2.023E3,1.5635E5,6.969583E6,1E0,1.2246469E-16,-5E-1,6.961883E5,-2.4492937E-16,5.3827374E9,7E1,3.2328496E7,-6.2325215E4,4.1295728E5,1.622675E6,1.65E5,9.9E2,8.1568694E5,2.1658333E5,1.622675E6,3.6377288E5,9.892406E6,4.148012E7,2.023E3,-1.2954316E5,-1.6481039E5,2.022E3,5.745897E4,2.05125E5,-1.6160417E5,-4.2296668E4,6.5674125E4,-9.50401E4,-1.6004789E5,-2.2226404E4,-1.4145948E5,-5.38767E3],"split_indices":[7,0,6,8,2,1,2,7,1,6,3,0,0,0,5,6,6,0,0,5,0,0,0,0,0,0,0,0,6,0,0,0,0,0,0,0,0],"split_type":[0,0,0,0,0,0,0,0,0,0,0,0,0,0,0,0,0,0,0,0,0,0,0,0,0,0,0,0,0,0,0,0,0,0,0,0,0],"sum_hessian":[1.296E3,1.285E3,1.1E1,1.216E3,6.9E1,3E0,8E0,1.214E3,2E0,6.4E1,5E0,2E0,1E0,1E0,7E0,1.19E3,2.4E1,1E0,1E0,6.3E1,1E0,4E0,1E0,2E0,5E0,1.158E3,3.2E1,1E0,2.3E1,6.2E1,1E0,1E0,1E0,2.6E1,6E0,2.1E1,2E0],"tree_param":{"num_deleted":"0","num_feature":"9","num_nodes":"37","size_leaf_vector":"1"}},{"base_weights":[1.8432936E6,-5.622079E6,8.017288E8,-1.5979505E7,1.745295E8,2.4053722E9,-8.261122E4,-1.6174881E7,6.847393E7,-1.4524816E7,2.1935296E9,3.211297E7,-6.2013582E4,4.108925E5,-1.0365251E7,-1.6250267E7,-1.1936456E7,8.1160844E5,2.1550042E5,-1.5882872E7,3.61954E5,9.813266E6,4.1272724E7,-1.9479426E6,-1.28463625E5,-1.6316372E5,-1.3436157E7,5.717168E4,-1.2910239E7,-1.6001378E5,-4.2085188E4,6.5345758E4,-9.45649E4,-1.5850667E5,-2.2035895E4,-1.4010917E5,-5.35175E3],"categories":[],"categories_nodes":[],"categories_segments":[],"categories_sizes":[],"default_left":[0,0,0,0,0,0,0,0,0,0,0,0,0,0,0,0,0,0,0,0,0,0,0,0,0,0,0,0,0,0,0,0,0,0,0,0,0],"id":30,"left_children":[1,3,5,7,9,11,13,15,17,19,21,-1,-1,-1,23,25,27,-1,-1,29,-1,-1,-1,31,-1,-1,33,-1,35,-1,-1,-1,-1,-1,-1,-1,-1],"loss_changes":[7.749469E18,2.402345E18,1.5430034E19,2.1188242E16,2.675091E19,7.7941015E18,4.236099E15,1.9420124E14,3.6938866E13,5.0521464E15,1.0014328E19,0E0,0E0,0E0,1.4205027E14,2.3364622E12,5.035798E14,0E0,0E0,2.1199959E13,0E0,0E0,0E0,2.5286833E14,0E0,0E0,8.600699E14,0E0,3.1940518E14,0E0,0E0,0E0,0E0,0E0,0E0,0E0,0E0],"parents":[2147483647,0,0,1,1,2,2,3,3,4,4,5,5,6,6,7,7,8,8,9,9,10,10,14,14,15,15,16,16,19,19,23,23,26,26,28,28],"right_children":[2,4,6,8,10,12,14,16,18,20,22,-1,-1,-1,24,26,28,-1,-1,30,-1,-1,-1,32,-1,-1,34,-1,36,-1,-1,-1,-1,-1,-1,-1,-1],"split_conditions":[2.562321E7,2.023E3,1.5635E5,6.969583E6,1E0,1.2246469E-16,-5E-1,6.961883E5,-2.4492937E-16,5.3827374E9,7E1,3.211297E7,-6.2013582E4,4.108925E5,1.622675E6,1.65E5,9.9E2,8.1160844E5,2.1550042E5,1.622675E6,3.61954E5,9.813266E6,4.1272724E7,2.023E3,-1.28463625E5,-1.6316372E5,2.022E3,5.717168E4,2.05125E5,-1.6001378E5,-4.2085188E4,6.5345758E4,-9.45649E4,-1.5850667E5,-2.2035895E4,-1.4010917E5,-5.35175E3],"split_indices":[7,0,6,8,2,1,2,7,1,6,3,0,0,0,5,6,6,0,0,5,0,0,0,0,0,0,0,0,6,0,0,0,0,0,0,0,0],"split_type":[0,0,0,0,0,0,0,0,0,0,0,0,0,0,0,0,0,0,0,0,0,0,0,0,0,0,0,0,0,0,0,0,0,0,0,0,0],"sum_hessian":[1.296E3,1.285E3,1.1E1,1.216E3,6.9E1,3E0,8E0,1.214E3,2E0,6.4E1,5E0,2E0,1E0,1E0,7E0,1.19E3,2.4E1,1E0,1E0,6.3E1,1E0,4E0,1E0,2E0,5E0,1.158E3,3.2E1,1E0,2.3E1,6.2E1,1E0,1E0,1E0,2.6E1,6E0,2.1E1,2E0],"tree_param":{"num_deleted":"0","num_feature":"9","num_nodes":"37","size_leaf_vector":"1"}},{"base_weights":[1.8897374E6,-5.525546E6,7.9640346E8,-1.5819221E7,1.7351629E8,2.3893312E9,-5.365011E4,-1.6013487E7,6.813156E7,-1.4377108E7,2.1801088E9,3.1898882E7,-6.170351E4,4.0883806E5,-1.0281308E7,-1.6144248E5,-1.3451636E7,8.0755044E5,2.1442292E5,-1.5727201E7,3.6014422E5,9.734759E6,4.106636E7,-1.9382034E6,-1.2739309E5,5.688582E4,-1.3839586E7,-1.5843903E5,-4.1874758E4,6.5019027E4,-9.409208E4,-3.1039441E4,-1.4696775E5],"categories":[],"categories_nodes":[],"categories_segments":[],"categories_sizes":[],"default_left":[0,0,0,0,0,0,0,0,0,0,0,0,0,0,0,0,0,0,0,0,0,0,0,0,0,0,0,0,0,0,0,0,0],"id":31,"left_children":[1,3,5,7,9,11,13,15,17,19,21,-1,-1,-1,23,-1,25,-1,-1,27,-1,-1,-1,29,-1,-1,31,-1,-1,-1,-1,-1,-1],"loss_changes":[7.6457334E18,2.372841E18,1.5224511E19,2.093879E16,2.6423127E19,7.6906286E18,4.1885877E15,1.8983755E14,3.6571647E13,4.988566E15,9.949954E18,0E0,0E0,0E0,1.3936753E14,0E0,5.613823E14,0E0,0E0,1.9843823E13,0E0,0E0,0E0,2.5034598E14,0E0,0E0,5.4334235E14,0E0,0E0,0E0,0E0,0E0,0E0],"parents":[2147483647,0,0,1,1,2,2,3,3,4,4,5,5,6,6,7,7,8,8,9,9,10,10,14,14,16,16,19,19,23,23,26,26],"right_children":[2,4,6,8,10,12,14,16,18,20,22,-1,-1,-1,24,-1,26,-1,-1,28,-1,-1,-1,30,-1,-1,32,-1,-1,-1,-1,-1,-1],"split_conditions":[2.562321E7,2.023E3,1.5635E5,6.969583E6,1E0,1.2246469E-16,-5E-1,1.52507E5,-2.4492937E-16,5.3827374E9,7E1,3.1898882E7,-6.170351E4,4.0883806E5,1.622675E6,-1.6144248E5,9.9E2,8.0755044E5,2.1442292E5,1.622675E6,3.6014422E5,9.734759E6,4.106636E7,2.023E3,-1.2739309E5,5.688582E4,1.6294575E5,-1.5843903E5,-4.1874758E4,6.5019027E4,-9.409208E4,-3.1039441E4,-1.4696775E5],"split_indices":[7,0,6,8,2,1,2,8,1,6,3,0,0,0,5,0,6,0,0,5,0,0,0,0,0,0,8,0,0,0,0,0,0],"split_type":[0,0,0,0,0,0,0,0,0,0,0,0,0,0,0,0,0,0,0,0,0,0,0,0,0,0,0,0,0,0,0,0,0],"sum_hessian":[1.296E3,1.285E3,1.1E1,1.216E3,6.9E1,3E0,8E0,1.214E3,2E0,6.4E1,5E0,2E0,1E0,1E0,7E0,1.15E3,6.4E1,1E0,1E0,6.3E1,1E0,4E0,1E0,2E0,5E0,1E0,6.3E1,6.2E1,1E0,1E0,1E0,5E0,5.8E1],"tree_param":{"num_deleted":"0","num_feature":"9","num_nodes":"33","size_leaf_vector":"1"}},{"base_weights":[1.9354428E6,-5.4300885E6,7.911136E8,-1.5660422E7,1.7250914E8,2.3733972E9,-2.5073111E4,-1.5853585E7,6.7790904E7,-1.4230878E7,2.1667743E9,3.1686226E7,-6.1394992E4,4.0679384E5,-1.0198053E7,-1.5927719E7,-1.1687687E7,8.035127E5,2.133508E5,-1.5573059E7,3.583435E5,9.656882E6,4.0861028E7,-1.9285126E6,-1.2633148E5,-1.599266E5,-1.3164317E7,5.660139E4,-1.2646352E7,-1.5687978E5,-4.166539E4,6.469393E4,-9.362162E4,-1.555329E5,-2.069087E4,-1.3736889E5,-4.336283E3],"categories":[],"categories_nodes":[],"categories_segments":[],"categories_sizes":[],"default_left":[0,0,0,0,0,0,0,0,0,0,0,0,0,0,0,0,0,0,0,0,0,0,0,0,0,0,0,0,0,0,0,0,0,0,0,0,0],"id":32,"left_children":[1,3,5,7,9,11,13,15,17,19,21,-1,-1,-1,23,25,27,-1,-1,29,-1,-1,-1,31,-1,-1,33,-1,35,-1,-1,-1,-1,-1,-1,-1,-1],"loss_changes":[7.5433886E18,2.3437072E18,1.5021728E19,2.069243E16,2.6099473E19,7.588526E18,4.141621E15,1.8908164E14,3.62055E13,4.9258293E15,9.885773E18,0E0,0E0,0E0,1.3673364E14,3.1954557E12,4.873494E14,0E0,0E0,1.8529563E13,0E0,0E0,0E0,2.4784876E14,0E0,0E0,8.425239E14,0E0,3.1368535E14,0E0,0E0,0E0,0E0,0E0,0E0,0E0,0E0],"parents":[2147483647,0,0,1,1,2,2,3,3,4,4,5,5,6,6,7,7,8,8,9,9,10,10,14,14,15,15,16,16,19,19,23,23,26,26,28,28],"right_children":[2,4,6,8,10,12,14,16,18,20,22,-1,-1,-1,24,26,28,-1,-1,30,-1,-1,-1,32,-1,-1,34,-1,36,-1,-1,-1,-1,-1,-1,-1,-1],"split_conditions":[2.562321E7,2.023E3,1.5635E5,6.969583E6,1E0,1.2246469E-16,-5E-1,6.961883E5,-2.4492937E-16,5.3827374E9,7E1,3.1686226E7,-6.1394992E4,4.0679384E5,1.622675E6,1.65E5,9.9E2,8.035127E5,2.133508E5,1.622675E6,3.583435E5,9.656882E6,4.0861028E7,2.023E3,-1.2633148E5,-1.599266E5,2.022E3,5.660139E4,2.05125E5,-1.5687978E5,-4.166539E4,6.469393E4,-9.362162E4,-1.555329E5,-2.069087E4,-1.3736889E5,-4.336283E3],"split_indices":[7,0,6,8,2,1,2,7,1,6,3,0,0,0,5,6,6,0,0,5,0,0,0,0,0,0,0,0,6,0,0,0,0,0,0,0,0],"split_type":[0,0,0,0,0,0,0,0,0,0,0,0,0,0,0,0,0,0,0,0,0,0,0,0,0,0,0,0,0,0,0,0,0,0,0,0,0],"sum_hessian":[1.296E3,1.285E3,1.1E1,1.216E3,6.9E1,3E0,8E0,1.214E3,2E0,6.4E1,5E0,2E0,1E0,1E0,7E0,1.19E3,2.4E1,1E0,1E0,6.3E1,1E0,4E0,1E0,2E0,5E0,1.158E3,3.2E1,1E0,2.3E1,6.2E1,1E0,1E0,1E0,2.6E1,6E0,2.1E1,2E0],"tree_param":{"num_deleted":"0","num_feature":"9","num_nodes":"37","size_leaf_vector":"1"}},{"base_weights":[1.9801979E6,-5.335917E6,7.858588E8,-1.5503328E7,1.7150802E8,2.3575693E9,3.1275557E3,-1.5695396E7,6.7451944E7,-1.4086111E7,2.1535263E9,3.1474984E7,-6.1088023E4,4.047599E5,-1.011548E7,-1.5768724E7,-1.1574214E7,7.994951E5,2.1228403E5,-1.5420431E7,3.5655178E5,9.579627E6,4.065672E7,-1.9188694E6,-1.2527871E5,-1.583287E5,-1.3038014E7,5.631838E4,-1.2525793E7,-1.5533589E5,-4.145706E4,6.4370457E4,-9.31535E4,-1.5403517E5,-2.0513525E4,-1.3605764E5,-4.3073765E3],"categories":[],"categories_nodes":[],"categories_segments":[],"categories_sizes":[],"default_left":[0,0,0,0,0,0,0,0,0,0,0,0,0,0,0,0,0,0,0,0,0,0,0,0,0,0,0,0,0,0,0,0,0,0,0,0,0],"id":33,"left_children":[1,3,5,7,9,11,13,15,17,19,21,-1,-1,-1,23,25,27,-1,-1,29,-1,-1,-1,31,-1,-1,33,-1,35,-1,-1,-1,-1,-1,-1,-1,-1],"loss_changes":[7.442418E18,2.3149445E18,1.4821645E19,2.0449198E16,2.5779902E19,7.48778E18,4.0951952E15,1.8464923E14,3.5844723E13,4.8639184E15,9.821792E18,0E0,0E0,0E0,1.3414814E14,2.1990233E12,4.7986623E14,0E0,0E0,1.7256105E13,0E0,0E0,0E0,2.4537643E14,0E0,0E0,8.260387E14,0E0,3.076351E14,0E0,0E0,0E0,0E0,0E0,0E0,0E0,0E0],"parents":[2147483647,0,0,1,1,2,2,3,3,4,4,5,5,6,6,7,7,8,8,9,9,10,10,14,14,15,15,16,16,19,19,23,23,26,26,28,28],"right_children":[2,4,6,8,10,12,14,16,18,20,22,-1,-1,-1,24,26,28,-1,-1,30,-1,-1,-1,32,-1,-1,34,-1,36,-1,-1,-1,-1,-1,-1,-1,-1],"split_conditions":[2.562321E7,2.023E3,1.5635E5,6.969583E6,1E0,1.2246469E-16,-5E-1,6.961883E5,-2.4492937E-16,5.3827374E9,7E1,3.1474984E7,-6.1088023E4,4.047599E5,1.622675E6,1.65E5,9.9E2,7.994951E5,2.1228403E5,1.622675E6,3.5655178E5,9.579627E6,4.065672E7,2.023E3,-1.2527871E5,-1.583287E5,2.022E3,5.631838E4,2.05125E5,-1.5533589E5,-4.145706E4,6.4370457E4,-9.31535E4,-1.5403517E5,-2.0513525E4,-1.3605764E5,-4.3073765E3],"split_indices":[7,0,6,8,2,1,2,7,1,6,3,0,0,0,5,6,6,0,0,5,0,0,0,0,0,0,0,0,6,0,0,0,0,0,0,0,0],"split_type":[0,0,0,0,0,0,0,0,0,0,0,0,0,0,0,0,0,0,0,0,0,0,0,0,0,0,0,0,0,0,0,0,0,0,0,0,0],"sum_hessian":[1.296E3,1.285E3,1.1E1,1.216E3,6.9E1,3E0,8E0,1.214E3,2E0,6.4E1,5E0,2E0,1E0,1E0,7E0,1.19E3,2.4E1,1E0,1E0,6.3E1,1E0,4E0,1E0,2E0,5E0,1.158E3,3.2E1,1E0,2.3E1,6.2E1,1E0,1E0,1E0,2.6E1,6E0,2.1E1,2E0],"tree_param":{"num_deleted":"0","num_feature":"9","num_nodes":"37","size_leaf_vector":"1"}},{"base_weights":[2.0241241E6,-5.242907E6,7.806389E8,-1.5347805E7,1.7051286E8,2.341847E9,3.0950223E4,-1.5538785E7,6.711469E7,-1.3942792E7,2.1403638E9,3.1265148E7,-6.0782582E4,4.0273606E5,-1.0033583E7,-1.5611316E7,-1.1461833E7,7.954977E5,2.1122261E5,-1.5269301E7,3.5476903E5,9.50299E6,4.0453436E7,-1.9092754E6,-1.2423473E5,-1.5674677E5,-1.2912923E7,5.603679E4,-1.2406383E7,-1.5380719E5,-4.124977E4,6.404861E4,-9.2687734E4,-1.5255188E5,-2.0337688E4,-1.347589E5,-4.2786562E3],"categories":[],"categories_nodes":[],"categories_segments":[],"categories_sizes":[],"default_left":[0,0,0,0,0,0,0,0,0,0,0,0,0,0,0,0,0,0,0,0,0,0,0,0,0,0,0,0,0,0,0,0,0,0,0,0,0],"id":34,"left_children":[1,3,5,7,9,11,13,15,17,19,21,-1,-1,-1,23,25,27,-1,-1,29,-1,-1,-1,31,-1,-1,33,-1,35,-1,-1,-1,-1,-1,-1,-1,-1],"loss_changes":[7.3428014E18,2.2865456E18,1.4624226E19,2.0208955E16,2.546435E19,7.3883707E18,4.0493008E15,1.8035427E14,3.5487167E13,4.802827E15,9.758014E18,0E0,0E0,0E0,1.3160974E14,1.2025908E12,4.7250197E14,0E0,0E0,1.6022375E13,0E0,0E0,0E0,2.4292885E14,0E0,0E0,8.098762E14,0E0,3.0170078E14,0E0,0E0,0E0,0E0,0E0,0E0,0E0,0E0],"parents":[2147483647,0,0,1,1,2,2,3,3,4,4,5,5,6,6,7,7,8,8,9,9,10,10,14,14,15,15,16,16,19,19,23,23,26,26,28,28],"right_children":[2,4,6,8,10,12,14,16,18,20,22,-1,-1,-1,24,26,28,-1,-1,30,-1,-1,-1,32,-1,-1,34,-1,36,-1,-1,-1,-1,-1,-1,-1,-1],"split_conditions":[2.562321E7,2.023E3,1.5635E5,6.969583E6,1E0,1.2246469E-16,-5E-1,6.961883E5,-2.4492937E-16,5.3827374E9,7E1,3.1265148E7,-6.0782582E4,4.0273606E5,1.622675E6,1.65E5,9.9E2,7.954977E5,2.1122261E5,1.622675E6,3.5476903E5,9.50299E6,4.0453436E7,2.023E3,-1.2423473E5,-1.5674677E5,2.022E3,5.603679E4,2.05125E5,-1.5380719E5,-4.124977E4,6.404861E4,-9.2687734E4,-1.5255188E5,-2.0337688E4,-1.347589E5,-4.2786562E3],"split_indices":[7,0,6,8,2,1,2,7,1,6,3,0,0,0,5,6,6,0,0,5,0,0,0,0,0,0,0,0,6,0,0,0,0,0,0,0,0],"split_type":[0,0,0,0,0,0,0,0,0,0,0,0,0,0,0,0,0,0,0,0,0,0,0,0,0,0,0,0,0,0,0,0,0,0,0,0,0],"sum_hessian":[1.296E3,1.285E3,1.1E1,1.216E3,6.9E1,3E0,8E0,1.214E3,2E0,6.4E1,5E0,2E0,1E0,1E0,7E0,1.19E3,2.4E1,1E0,1E0,6.3E1,1E0,4E0,1E0,2E0,5E0,1.158E3,3.2E1,1E0,2.3E1,6.2E1,1E0,1E0,1E0,2.6E1,6E0,2.1E1,2E0],"tree_param":{"num_deleted":"0","num_feature":"9","num_nodes":"37","size_leaf_vector":"1"}},{"base_weights":[2.0672328E6,-5.151045E6,7.754537E8,-1.5193839E7,1.695237E8,2.3262298E9,5.840289E4,-1.5383736E7,6.677911E7,-1.3800907E7,2.1272863E9,3.1056714E7,-6.047867E4,4.007224E5,-9.952357E6,-1.5455479E7,-1.1350535E7,7.915201E5,2.101665E5,-1.5119656E7,3.529952E5,9.426966E6,4.0251172E7,-1.8997286E6,-1.23199445E5,-1.5518064E5,-1.2789033E7,5.575661E4,-1.2288112E7,-1.5229353E5,-4.104352E4,6.3728367E4,-9.22243E4,-1.5108286E5,-2.016336E4,-1.3347256E5,-4.250136E3],"categories":[],"categories_nodes":[],"categories_segments":[],"categories_sizes":[],"default_left":[0,0,0,0,0,0,0,0,0,0,0,0,0,0,0,0,0,0,0,0,0,0,0,0,0,0,0,0,0,0,0,0,0,0,0,0,0],"id":35,"left_children":[1,3,5,7,9,11,13,15,17,19,21,-1,-1,-1,23,25,27,-1,-1,29,-1,-1,-1,31,-1,-1,33,-1,35,-1,-1,-1,-1,-1,-1,-1,-1],"loss_changes":[7.2445205E18,2.2585057E18,1.4429439E19,1.9971632E16,2.515278E19,7.290279E18,4.0039333E15,1.761452E14,3.5132832E13,4.7425405E15,9.694442E18,0E0,0E0,0E0,1.2911792E14,2.748779E11,4.65255E14,0E0,0E0,1.4829448E13,0E0,0E0,0E0,2.4050562E14,0E0,0E0,7.9402886E14,0E0,2.9588083E14,0E0,0E0,0E0,0E0,0E0,0E0,0E0,0E0],"parents":[2147483647,0,0,1,1,2,2,3,3,4,4,5,5,6,6,7,7,8,8,9,9,10,10,14,14,15,15,16,16,19,19,23,23,26,26,28,28],"right_children":[2,4,6,8,10,12,14,16,18,20,22,-1,-1,-1,24,26,28,-1,-1,30,-1,-1,-1,32,-1,-1,34,-1,36,-1,-1,-1,-1,-1,-1,-1,-1],"split_conditions":[2.562321E7,2.023E3,1.5635E5,6.969583E6,1E0,1.2246469E-16,-5E-1,6.961883E5,-2.4492937E-16,5.3827374E9,7E1,3.1056714E7,-6.047867E4,4.007224E5,1.622675E6,1.65E5,9.9E2,7.915201E5,2.101665E5,1.622675E6,3.529952E5,9.426966E6,4.0251172E7,2.023E3,-1.23199445E5,-1.5518064E5,2.022E3,5.575661E4,2.05125E5,-1.5229353E5,-4.104352E4,6.3728367E4,-9.22243E4,-1.5108286E5,-2.016336E4,-1.3347256E5,-4.250136E3],"split_indices":[7,0,6,8,2,1,2,7,1,6,3,0,0,0,5,6,6,0,0,5,0,0,0,0,0,0,0,0,6,0,0,0,0,0,0,0,0],"split_type":[0,0,0,0,0,0,0,0,0,0,0,0,0,0,0,0,0,0,0,0,0,0,0,0,0,0,0,0,0,0,0,0,0,0,0,0,0],"sum_hessian":[1.296E3,1.285E3,1.1E1,1.216E3,6.9E1,3E0,8E0,1.214E3,2E0,6.4E1,5E0,2E0,1E0,1E0,7E0,1.19E3,2.4E1,1E0,1E0,6.3E1,1E0,4E0,1E0,2E0,5E0,1.158E3,3.2E1,1E0,2.3E1,6.2E1,1E0,1E0,1E0,2.6E1,6E0,2.1E1,2E0],"tree_param":{"num_deleted":"0","num_feature":"9","num_nodes":"37","size_leaf_vector":"1"}},{"base_weights":[2.1095338E6,-5.0603185E6,7.703029E8,-1.5041413E7,1.6854042E8,2.3107164E9,8.548911E4,-1.5230235E7,6.6445216E7,-1.3660441E7,2.114293E9,3.0849668E7,-6.0176285E4,3.9871878E5,-9.871795E6,-1.5354828E5,-1.2789648E7,7.8756256E5,2.0911566E5,-1.497148E7,3.5123022E5,9.351551E6,4.004991E7,-1.89023E6,-1.2217277E5,5.547783E4,-1.3162854E7,-1.5079477E5,-4.08383E4,6.340973E4,-9.176318E4,-2.6443402E4,-1.4009434E5],"categories":[],"categories_nodes":[],"categories_segments":[],"categories_sizes":[],"default_left":[0,0,0,0,0,0,0,0,0,0,0,0,0,0,0,0,0,0,0,0,0,0,0,0,0,0,0,0,0,0,0,0,0],"id":36,"left_children":[1,3,5,7,9,11,13,15,17,19,21,-1,-1,-1,23,-1,25,-1,-1,27,-1,-1,-1,29,-1,-1,31,-1,-1,-1,-1,-1,-1],"loss_changes":[7.147558E18,2.2308198E18,1.4237242E19,1.9737265E16,2.4845128E19,7.1934955E18,3.9590866E15,1.7307E14,3.4782793E13,4.68305E15,9.63108E18,0E0,0E0,0E0,1.2667154E14,0E0,5.178614E14,0E0,0E0,1.3671955E13,0E0,0E0,0E0,2.381066E14,0E0,0E0,5.328594E14,0E0,0E0,0E0,0E0,0E0,0E0],"parents":[2147483647,0,0,1,1,2,2,3,3,4,4,5,5,6,6,7,7,8,8,9,9,10,10,14,14,16,16,19,19,23,23,26,26],"right_children":[2,4,6,8,10,12,14,16,18,20,22,-1,-1,-1,24,-1,26,-1,-1,28,-1,-1,-1,30,-1,-1,32,-1,-1,-1,-1,-1,-1],"split_conditions":[2.562321E7,2.023E3,1.5635E5,6.969583E6,1E0,1.2246469E-16,-5E-1,1.52507E5,-2.4492937E-16,5.3827374E9,7E1,3.0849668E7,-6.0176285E4,3.9871878E5,1.622675E6,-1.5354828E5,9.9E2,7.8756256E5,2.0911566E5,1.622675E6,3.5123022E5,9.351551E6,4.004991E7,2.023E3,-1.2217277E5,5.547783E4,1.6294575E5,-1.5079477E5,-4.08383E4,6.340973E4,-9.176318E4,-2.6443402E4,-1.4009434E5],"split_indices":[7,0,6,8,2,1,2,8,1,6,3,0,0,0,5,0,6,0,0,5,0,0,0,0,0,0,8,0,0,0,0,0,0],"split_type":[0,0,0,0,0,0,0,0,0,0,0,0,0,0,0,0,0,0,0,0,0,0,0,0,0,0,0,0,0,0,0,0,0],"sum_hessian":[1.296E3,1.285E3,1.1E1,1.216E3,6.9E1,3E0,8E0,1.214E3,2E0,6.4E1,5E0,2E0,1E0,1E0,7E0,1.15E3,6.4E1,1E0,1E0,6.3E1,1E0,4E0,1E0,2E0,5E0,1E0,6.3E1,6.2E1,1E0,1E0,1E0,5E0,5.8E1],"tree_param":{"num_deleted":"0","num_feature":"9","num_nodes":"33","size_leaf_vector":"1"}},{"base_weights":[2.1511452E6,-4.9706075E6,7.6518637E8,-1.4890397E7,1.6756304E8,2.2953068E9,1.12210664E5,-1.507815E7,6.611299E7,-1.3521381E7,2.1013837E9,3.0644006E7,-5.9875402E4,3.967252E5,-9.791893E6,-1.5148708E7,-1.111364E7,7.836248E5,2.0807008E5,-1.4824759E7,3.4947406E5,9.276738E6,3.9849664E7,-1.8807786E6,-1.2115468E5,-1.5210192E5,-1.2530258E7,5.5200438E4,-1.2036712E7,-1.4931075E5,-4.063411E4,6.309268E4,-9.130436E4,-1.4824903E5,-1.889442E4,-1.3086125E5,-3.2878433E3],"categories":[],"categories_nodes":[],"categories_segments":[],"categories_sizes":[],"default_left":[0,0,0,0,0,0,0,0,0,0,0,0,0,0,0,0,0,0,0,0,0,0,0,0,0,0,0,0,0,0,0,0,0,0,0,0,0],"id":37,"left_children":[1,3,5,7,9,11,13,15,17,19,21,-1,-1,-1,23,25,27,-1,-1,29,-1,-1,-1,31,-1,-1,33,-1,35,-1,-1,-1,-1,-1,-1,-1,-1],"loss_changes":[7.051893E18,2.2034808E18,1.4047609E19,1.9505749E16,2.4541348E19,7.097994E18,3.9147537E15,1.7150663E14,3.4437048E13,4.624341E15,9.56793E18,0E0,0E0,0E0,1.2427005E14,1.1682311E12,4.5029538E14,0E0,0E0,1.2552042E13,0E0,0E0,0E0,2.3573146E14,0E0,0E0,7.7774664E14,0E0,2.9057225E14,0E0,0E0,0E0,0E0,0E0,0E0,0E0,0E0],"parents":[2147483647,0,0,1,1,2,2,3,3,4,4,5,5,6,6,7,7,8,8,9,9,10,10,14,14,15,15,16,16,19,19,23,23,26,26,28,28],"right_children":[2,4,6,8,10,12,14,16,18,20,22,-1,-1,-1,24,26,28,-1,-1,30,-1,-1,-1,32,-1,-1,34,-1,36,-1,-1,-1,-1,-1,-1,-1,-1],"split_conditions":[2.562321E7,2.023E3,1.5635E5,6.969583E6,1E0,1.2246469E-16,-5E-1,6.961883E5,-2.4492937E-16,5.3827374E9,7E1,3.0644006E7,-5.9875402E4,3.967252E5,1.622675E6,1.65E5,9.9E2,7.836248E5,2.0807008E5,1.622675E6,3.4947406E5,9.276738E6,3.9849664E7,2.023E3,-1.2115468E5,-1.5210192E5,2.022E3,5.5200438E4,2.05125E5,-1.4931075E5,-4.063411E4,6.309268E4,-9.130436E4,-1.4824903E5,-1.889442E4,-1.3086125E5,-3.2878433E3],"split_indices":[7,0,6,8,2,1,2,7,1,6,3,0,0,0,5,6,6,0,0,5,0,0,0,0,0,0,0,0,6,0,0,0,0,0,0,0,0],"split_type":[0,0,0,0,0,0,0,0,0,0,0,0,0,0,0,0,0,0,0,0,0,0,0,0,0,0,0,0,0,0,0,0,0,0,0,0,0],"sum_hessian":[1.296E3,1.285E3,1.1E1,1.216E3,6.9E1,3E0,8E0,1.214E3,2E0,6.4E1,5E0,2E0,1E0,1E0,7E0,1.19E3,2.4E1,1E0,1E0,6.3E1,1E0,4E0,1E0,2E0,5E0,1.158E3,3.2E1,1E0,2.3E1,6.2E1,1E0,1E0,1E0,2.6E1,6E0,2.1E1,2E0],"tree_param":{"num_deleted":"0","num_feature":"9","num_nodes":"37","size_leaf_vector":"1"}},{"base_weights":[2.191863E6,-4.882115E6,7.601039E8,-1.4741006E7,1.6659149E8,2.2799997E9,1.3857367E5,-1.4927696E7,6.5782424E7,-1.3383713E7,2.0885576E9,3.0439712E7,-5.9576023E4,3.947416E5,-9.712645E6,-1.4997489E7,-1.1005662E7,7.797066E5,2.0702972E5,-1.4679479E7,3.477267E5,9.202523E6,3.9650416E7,-1.8713746E6,-1.20145055E5,-1.5058222E5,-1.241002E7,5.4924438E4,-1.1921935E7,-1.4784134E5,-4.0430938E4,6.277722E4,-9.0847836E4,-1.4682145E5,-1.8732477E4,-1.2961212E5,-3.2659233E3],"categories":[],"categories_nodes":[],"categories_segments":[],"categories_sizes":[],"default_left":[0,0,0,0,0,0,0,0,0,0,0,0,0,0,0,0,0,0,0,0,0,0,0,0,0,0,0,0,0,0,0,0,0,0,0,0,0],"id":38,"left_children":[1,3,5,7,9,11,13,15,17,19,21,-1,-1,-1,23,25,27,-1,-1,29,-1,-1,-1,31,-1,-1,33,-1,35,-1,-1,-1,-1,-1,-1,-1,-1],"loss_changes":[6.957515E18,2.1764893E18,1.3860503E19,1.9277136E16,2.4241388E19,7.0037615E18,3.8709295E15,1.675209E14,3.4092377E13,4.566408E15,9.504999E18,0E0,0E0,0E0,1.2191251E14,2.9205778E11,4.4339954E14,0E0,0E0,1.1467563E13,0E0,0E0,0E0,2.3338007E14,0E0,0E0,7.625457E14,0E0,2.849853E14,0E0,0E0,0E0,0E0,0E0,0E0,0E0,0E0],"parents":[2147483647,0,0,1,1,2,2,3,3,4,4,5,5,6,6,7,7,8,8,9,9,10,10,14,14,15,15,16,16,19,19,23,23,26,26,28,28],"right_children":[2,4,6,8,10,12,14,16,18,20,22,-1,-1,-1,24,26,28,-1,-1,30,-1,-1,-1,32,-1,-1,34,-1,36,-1,-1,-1,-1,-1,-1,-1,-1],"split_conditions":[2.562321E7,2.023E3,1.5635E5,6.969583E6,1E0,1.2246469E-16,-5E-1,6.961883E5,-2.4492937E-16,5.3827374E9,7E1,3.0439712E7,-5.9576023E4,3.947416E5,1.622675E6,1.65E5,9.9E2,7.797066E5,2.0702972E5,1.622675E6,3.477267E5,9.202523E6,3.9650416E7,2.023E3,-1.20145055E5,-1.5058222E5,2.022E3,5.4924438E4,2.05125E5,-1.4784134E5,-4.0430938E4,6.277722E4,-9.0847836E4,-1.4682145E5,-1.8732477E4,-1.2961212E5,-3.2659233E3],"split_indices":[7,0,6,8,2,1,2,7,1,6,3,0,0,0,5,6,6,0,0,5,0,0,0,0,0,0,0,0,6,0,0,0,0,0,0,0,0],"split_type":[0,0,0,0,0,0,0,0,0,0,0,0,0,0,0,0,0,0,0,0,0,0,0,0,0,0,0,0,0,0,0,0,0,0,0,0,0],"sum_hessian":[1.296E3,1.285E3,1.1E1,1.216E3,6.9E1,3E0,8E0,1.214E3,2E0,6.4E1,5E0,2E0,1E0,1E0,7E0,1.19E3,2.4E1,1E0,1E0,6.3E1,1E0,4E0,1E0,2E0,5E0,1.158E3,3.2E1,1E0,2.3E1,6.2E1,1E0,1E0,1E0,2.6E1,6E0,2.1E1,2E0],"tree_param":{"num_deleted":"0","num_feature":"9","num_nodes":"37","size_leaf_vector":"1"}},{"base_weights":[2.2318032E6,-4.794721E6,7.55055E8,-1.4593109E7,1.6562574E8,2.2647946E9,1.6457933E5,-1.4778744E7,6.545351E7,-1.3247423E7,2.0758141E9,3.0236782E7,-5.9278145E4,3.9276788E5,-9.634045E6,-1.484778E5,-1.0898724E7,7.7580806E5,2.0599458E5,-1.4535627E7,3.4598803E5,9.128903E6,3.9452164E7,-1.862018E6,-1.1914384E5,5.464982E4,-1.1808252E7,-1.4638639E5,-4.022879E4,6.246333E4,-9.03936E4,-1.28374914E5,-3.24415E3],"categories":[],"categories_nodes":[],"categories_segments":[],"categories_sizes":[],"default_left":[0,0,0,0,0,0,0,0,0,0,0,0,0,0,0,0,0,0,0,0,0,0,0,0,0,0,0,0,0,0,0,0,0],"id":39,"left_children":[1,3,5,7,9,11,13,15,17,19,21,-1,-1,-1,23,-1,25,-1,-1,27,-1,-1,-1,29,-1,-1,31,-1,-1,-1,-1,-1,-1],"loss_changes":[6.8644E18,2.1498385E18,1.3675884E19,1.905129E16,2.39452E19,6.91078E18,3.8276072E15,1.6363825E14,3.3753074E13,4.5092346E15,9.442285E18,0E0,0E0,0E0,1.1959806E14,0E0,4.366135E14,0E0,0E0,1.0419591E13,0E0,0E0,0E0,2.3105208E14,0E0,0E0,2.7950627E14,0E0,0E0,0E0,0E0,0E0,0E0],"parents":[2147483647,0,0,1,1,2,2,3,3,4,4,5,5,6,6,7,7,8,8,9,9,10,10,14,14,16,16,19,19,23,23,26,26],"right_children":[2,4,6,8,10,12,14,16,18,20,22,-1,-1,-1,24,-1,26,-1,-1,28,-1,-1,-1,30,-1,-1,32,-1,-1,-1,-1,-1,-1],"split_conditions":[2.562321E7,2.023E3,1.5635E5,6.969583E6,1E0,1.2246469E-16,-5E-1,6.961883E5,-2.4492937E-16,5.3827374E9,7E1,3.0236782E7,-5.9278145E4,3.9276788E5,1.622675E6,-1.484778E5,9.9E2,7.7580806E5,2.0599458E5,1.622675E6,3.4598803E5,9.128903E6,3.9452164E7,2.023E3,-1.1914384E5,5.464982E4,2.05125E5,-1.4638639E5,-4.022879E4,6.246333E4,-9.03936E4,-1.28374914E5,-3.24415E3],"split_indices":[7,0,6,8,2,1,2,7,1,6,3,0,0,0,5,0,6,0,0,5,0,0,0,0,0,0,6,0,0,0,0,0,0],"split_type":[0,0,0,0,0,0,0,0,0,0,0,0,0,0,0,0,0,0,0,0,0,0,0,0,0,0,0,0,0,0,0,0,0],"sum_hessian":[1.296E3,1.285E3,1.1E1,1.216E3,6.9E1,3E0,8E0,1.214E3,2E0,6.4E1,5E0,2E0,1E0,1E0,7E0,1.19E3,2.4E1,1E0,1E0,6.3E1,1E0,4E0,1E0,2E0,5E0,1E0,2.3E1,6.2E1,1E0,1E0,1E0,2.1E1,2E0],"tree_param":{"num_deleted":"0","num_feature":"9","num_nodes":"33","size_leaf_vector":"1"}},{"base_weights":[2.2711048E6,-4.7082845E6,7.5003974E8,-1.4446556E7,1.6466578E8,2.2496911E9,1.9023311E5,-1.4631142E7,6.5126244E7,-1.3112497E7,2.0631529E9,3.0035202E7,-5.8981754E4,3.9080403E5,-9.556089E6,-1.4751375E5,-1.2277004E7,7.71929E5,2.049646E5,-1.4393187E7,3.4425806E5,9.055872E6,3.9254904E7,-1.8527074E6,-1.1815098E5,-2.290511E6,-1.3071036E7,-1.4494578E5,-4.002765E4,6.2151008E4,-8.994162E4,-1.4041003E5,2.8230975E5,5.437657E4,-1.3476906E5],"categories":[],"categories_nodes":[],"categories_segments":[],"categories_sizes":[],"default_left":[0,0,0,0,0,0,0,0,0,0,0,0,0,0,0,0,0,0,0,0,0,0,0,0,0,0,0,0,0,0,0,0,0,0,0],"id":40,"left_children":[1,3,5,7,9,11,13,15,17,19,21,-1,-1,-1,23,-1,25,-1,-1,27,-1,-1,-1,29,-1,31,33,-1,-1,-1,-1,-1,-1,-1,-1],"loss_changes":[6.7725337E18,2.123521E18,1.3493726E19,1.8828175E16,2.3652734E19,6.8190326E18,3.784781E15,1.6281362E14,3.3414846E13,4.4528138E15,9.379795E18,0E0,0E0,0E0,1.17326226E14,0E0,4.8548485E14,0E0,0E0,9.405978E12,0E0,0E0,0E0,2.2874729E14,0E0,2.5482462E15,5.240107E14,0E0,0E0,0E0,0E0,0E0,0E0,0E0,0E0],"parents":[2147483647,0,0,1,1,2,2,3,3,4,4,5,5,6,6,7,7,8,8,9,9,10,10,14,14,16,16,19,19,23,23,25,25,26,26],"right_children":[2,4,6,8,10,12,14,16,18,20,22,-1,-1,-1,24,-1,26,-1,-1,28,-1,-1,-1,30,-1,32,34,-1,-1,-1,-1,-1,-1,-1,-1],"split_conditions":[2.562321E7,2.023E3,1.5635E5,6.969583E6,1E0,1.2246469E-16,-5E-1,1.52507E5,-2.4492937E-16,5.3827374E9,7E1,3.0035202E7,-5.8981754E4,3.9080403E5,1.622675E6,-1.4751375E5,1.6294575E5,7.71929E5,2.049646E5,1.622675E6,3.4425806E5,9.055872E6,3.9254904E7,2.023E3,-1.1815098E5,5E-1,9.9E2,-1.4494578E5,-4.002765E4,6.2151008E4,-8.994162E4,-1.4041003E5,2.8230975E5,5.437657E4,-1.3476906E5],"split_indices":[7,0,6,8,2,1,2,8,1,6,3,0,0,0,5,0,8,0,0,5,0,0,0,0,0,1,6,0,0,0,0,0,0,0,0],"split_type":[0,0,0,0,0,0,0,0,0,0,0,0,0,0,0,0,0,0,0,0,0,0,0,0,0,0,0,0,0,0,0,0,0,0,0],"sum_hessian":[1.296E3,1.285E3,1.1E1,1.216E3,6.9E1,3E0,8E0,1.214E3,2E0,6.4E1,5E0,2E0,1E0,1E0,7E0,1.15E3,6.4E1,1E0,1E0,6.3E1,1E0,4E0,1E0,2E0,5E0,5E0,5.9E1,6.2E1,1E0,1E0,1E0,4E0,1E0,1E0,5.8E1],"tree_param":{"num_deleted":"0","num_feature":"9","num_nodes":"35","size_leaf_vector":"1"}},{"base_weights":[2.3097525E6,-4.622818E6,7.450577E8,-1.4301358E7,1.6371157E8,2.2346883E9,2.15537E5,-1.4484901E7,6.4800616E7,-1.2978921E7,2.0505732E9,2.9834966E7,-5.8686844E4,3.8885E5,-9.478771E6,-1.4603989E5,-1.2153288E7,7.6806944E5,2.0393978E5,-1.4252145E7,3.4253678E5,8.983425E6,3.905863E7,-1.8434446E6,-1.1716639E5,-2.2439562E6,-1.2941666E7,-1.4351933E5,-3.9827508E4,6.184025E4,-8.949192E4,-1.3928675E5,2.808982E5,5.4104688E4,-1.3344422E5],"categories":[],"categories_nodes":[],"categories_segments":[],"categories_sizes":[],"default_left":[0,0,0,0,0,0,0,0,0,0,0,0,0,0,0,0,0,0,0,0,0,0,0,0,0,0,0,0,0,0,0,0,0,0,0],"id":41,"left_children":[1,3,5,7,9,11,13,15,17,19,21,-1,-1,-1,23,-1,25,-1,-1,27,-1,-1,-1,29,-1,31,33,-1,-1,-1,-1,-1,-1,-1,-1],"loss_changes":[6.6818954E18,2.0975324E18,1.3313995E19,1.8607774E16,2.336395E19,6.728501E18,3.742445E15,1.5989304E14,3.308306E13,4.397136E15,9.317528E18,0E0,0E0,0E0,1.15095795E14,0E0,4.7876E14,0E0,0E0,8.4245784E12,0E0,0E0,0E0,2.2646556E14,0E0,2.517904E15,5.15686E14,0E0,0E0,0E0,0E0,0E0,0E0,0E0,0E0],"parents":[2147483647,0,0,1,1,2,2,3,3,4,4,5,5,6,6,7,7,8,8,9,9,10,10,14,14,16,16,19,19,23,23,25,25,26,26],"right_children":[2,4,6,8,10,12,14,16,18,20,22,-1,-1,-1,24,-1,26,-1,-1,28,-1,-1,-1,30,-1,32,34,-1,-1,-1,-1,-1,-1,-1,-1],"split_conditions":[2.562321E7,2.023E3,1.5635E5,6.969583E6,1E0,1.2246469E-16,-5E-1,1.52507E5,-2.4492937E-16,5.3827374E9,7E1,2.9834966E7,-5.8686844E4,3.8885E5,1.622675E6,-1.4603989E5,1.6294575E5,7.6806944E5,2.0393978E5,1.622675E6,3.4253678E5,8.983425E6,3.905863E7,2.023E3,-1.1716639E5,5E-1,9.9E2,-1.4351933E5,-3.9827508E4,6.184025E4,-8.949192E4,-1.3928675E5,2.808982E5,5.4104688E4,-1.3344422E5],"split_indices":[7,0,6,8,2,1,2,8,1,6,3,0,0,0,5,0,8,0,0,5,0,0,0,0,0,1,6,0,0,0,0,0,0,0,0],"split_type":[0,0,0,0,0,0,0,0,0,0,0,0,0,0,0,0,0,0,0,0,0,0,0,0,0,0,0,0,0,0,0,0,0,0,0],"sum_hessian":[1.296E3,1.285E3,1.1E1,1.216E3,6.9E1,3E0,8E0,1.214E3,2E0,6.4E1,5E0,2E0,1E0,1E0,7E0,1.15E3,6.4E1,1E0,1E0,6.3E1,1E0,4E0,1E0,2E0,5E0,5E0,5.9E1,6.2E1,1E0,1E0,1E0,4E0,1E0,1E0,5.8E1],"tree_param":{"num_deleted":"0","num_feature":"9","num_nodes":"35","size_leaf_vector":"1"}},{"base_weights":[2.3476495E6,-4.5384175E6,7.4010886E8,-1.4157615E7,1.6276302E8,2.2197855E9,2.4049633E5,-1.4340121E7,6.4476612E7,-1.2846683E7,2.0380744E9,2.9636068E7,-5.8393414E4,3.8690575E5,-9.402086E6,-1.440763E7,-1.0550398E7,7.642291E5,2.0292008E5,-1.4112488E7,3.4082412E5,8.911558E6,3.8863336E7,-1.8342274E6,-1.1619E5,-1.446645E5,-1.1905157E7,5.3834168E4,-1.1438616E7,-1.4210692E5,-3.9628367E4,6.1531047E4,-8.904446E4,-1.4133873E5,-1.6079416E4,-1.245893E5,-1.4344299E3],"categories":[],"categories_nodes":[],"categories_segments":[],"categories_sizes":[],"default_left":[0,0,0,0,0,0,0,0,0,0,0,0,0,0,0,0,0,0,0,0,0,0,0,0,0,0,0,0,0,0,0,0,0,0,0,0,0],"id":42,"left_children":[1,3,5,7,9,11,13,15,17,19,21,-1,-1,-1,23,25,27,-1,-1,29,-1,-1,-1,31,-1,-1,33,-1,35,-1,-1,-1,-1,-1,-1,-1,-1],"loss_changes":[6.5924727E18,2.0718713E18,1.3136657E19,1.8390054E16,2.3078784E19,6.6391745E18,3.7005946E15,1.5886225E14,3.2752347E13,4.3421883E15,9.255491E18,0E0,0E0,0E0,1.1290644E14,3.0751966E12,4.1539635E14,0E0,0E0,7.4753906E12,0E0,0E0,0E0,2.2420655E14,0E0,0E0,7.346096E14,0E0,2.7480409E14,0E0,0E0,0E0,0E0,0E0,0E0,0E0,0E0],"parents":[2147483647,0,0,1,1,2,2,3,3,4,4,5,5,6,6,7,7,8,8,9,9,10,10,14,14,15,15,16,16,19,19,23,23,26,26,28,28],"right_children":[2,4,6,8,10,12,14,16,18,20,22,-1,-1,-1,24,26,28,-1,-1,30,-1,-1,-1,32,-1,-1,34,-1,36,-1,-1,-1,-1,-1,-1,-1,-1],"split_conditions":[2.562321E7,2.023E3,1.5635E5,6.969583E6,1E0,1.2246469E-16,-5E-1,6.961883E5,-2.4492937E-16,5.3827374E9,7E1,2.9636068E7,-5.8393414E4,3.8690575E5,1.622675E6,1.65E5,9.9E2,7.642291E5,2.0292008E5,1.622675E6,3.4082412E5,8.911558E6,3.8863336E7,2.023E3,-1.1619E5,-1.446645E5,2.022E3,5.3834168E4,2.05125E5,-1.4210692E5,-3.9628367E4,6.1531047E4,-8.904446E4,-1.4133873E5,-1.6079416E4,-1.245893E5,-1.4344299E3],"split_indices":[7,0,6,8,2,1,2,7,1,6,3,0,0,0,5,6,6,0,0,5,0,0,0,0,0,0,0,0,6,0,0,0,0,0,0,0,0],"split_type":[0,0,0,0,0,0,0,0,0,0,0,0,0,0,0,0,0,0,0,0,0,0,0,0,0,0,0,0,0,0,0,0,0,0,0,0,0],"sum_hessian":[1.296E3,1.285E3,1.1E1,1.216E3,6.9E1,3E0,8E0,1.214E3,2E0,6.4E1,5E0,2E0,1E0,1E0,7E0,1.19E3,2.4E1,1E0,1E0,6.3E1,1E0,4E0,1E0,2E0,5E0,1.158E3,3.2E1,1E0,2.3E1,6.2E1,1E0,1E0,1E0,2.6E1,6E0,2.1E1,2E0],"tree_param":{"num_deleted":"0","num_feature":"9","num_nodes":"37","size_leaf_vector":"1"}},{"base_weights":[2.3845795E6,-4.455299E6,7.351928E8,-1.4015552E7,1.6182018E8,2.204982E9,2.6511388E5,-1.4197028E7,6.4154228E7,-1.2715769E7,2.0256562E9,2.9438494E7,-5.8101445E4,3.8497122E5,-9.326028E6,-1.4263807E7,-1.0447782E7,7.604079E5,2.0190547E5,-1.3974203E7,3.3912E5,8.840266E6,3.866902E7,-1.8250566E6,-1.1522176E5,-1.4321911E5,-1.1790875E7,5.3565E4,-1.1329482E7,-1.4070839E5,-3.943023E4,6.1223387E4,-8.8599234E4,-1.3775688E5,-5.632697E3,-1.2340004E5,-1.42487E3],"categories":[],"categories_nodes":[],"categories_segments":[],"categories_sizes":[],"default_left":[0,0,0,0,0,0,0,0,0,0,0,0,0,0,0,0,0,0,0,0,0,0,0,0,0,0,0,0,0,0,0,0,0,0,0,0,0],"id":43,"left_children":[1,3,5,7,9,11,13,15,17,19,21,-1,-1,-1,23,25,27,-1,-1,29,-1,-1,-1,31,-1,-1,33,-1,35,-1,-1,-1,-1,-1,-1,-1,-1],"loss_changes":[6.504254E18,2.0465394E18,1.2961681E19,1.8175116E16,2.2797204E19,6.5510354E18,3.6592227E15,1.5516858E14,3.242593E13,4.287961E15,9.1936786E18,0E0,0E0,0E0,1.10757274E14,2.2677427E12,4.0905215E14,0E0,0E0,6.558415E12,0E0,0E0,0E0,2.2197008E14,0E0,0E0,7.2763564E14,0E0,2.6955483E14,0E0,0E0,0E0,0E0,0E0,0E0,0E0,0E0],"parents":[2147483647,0,0,1,1,2,2,3,3,4,4,5,5,6,6,7,7,8,8,9,9,10,10,14,14,15,15,16,16,19,19,23,23,26,26,28,28],"right_children":[2,4,6,8,10,12,14,16,18,20,22,-1,-1,-1,24,26,28,-1,-1,30,-1,-1,-1,32,-1,-1,34,-1,36,-1,-1,-1,-1,-1,-1,-1,-1],"split_conditions":[2.562321E7,2.023E3,1.5635E5,6.969583E6,1E0,1.2246469E-16,-5E-1,6.961883E5,-2.4492937E-16,5.3827374E9,7E1,2.9438494E7,-5.8101445E4,3.8497122E5,1.622675E6,1.65E5,9.9E2,7.604079E5,2.0190547E5,1.622675E6,3.3912E5,8.840266E6,3.866902E7,2.023E3,-1.1522176E5,-1.4321911E5,1.06E2,5.3565E4,2.05125E5,-1.4070839E5,-3.943023E4,6.1223387E4,-8.8599234E4,-1.3775688E5,-5.632697E3,-1.2340004E5,-1.42487E3],"split_indices":[7,0,6,8,2,1,2,7,1,6,3,0,0,0,5,6,6,0,0,5,0,0,0,0,0,0,3,0,6,0,0,0,0,0,0,0,0],"split_type":[0,0,0,0,0,0,0,0,0,0,0,0,0,0,0,0,0,0,0,0,0,0,0,0,0,0,0,0,0,0,0,0,0,0,0,0,0],"sum_hessian":[1.296E3,1.285E3,1.1E1,1.216E3,6.9E1,3E0,8E0,1.214E3,2E0,6.4E1,5E0,2E0,1E0,1E0,7E0,1.19E3,2.4E1,1E0,1E0,6.3E1,1E0,4E0,1E0,2E0,5E0,1.158E3,3.2E1,1E0,2.3E1,6.2E1,1E0,1E0,1E0,2.7E1,5E0,2.1E1,2E0],"tree_param":{"num_deleted":"0","num_feature":"9","num_nodes":"37","size_leaf_vector":"1"}},{"base_weights":[2.4207915E6,-4.3732095E6,7.303095E8,-1.38749E7,1.6088294E8,2.1902774E9,2.8939366E5,-1.4055353E7,6.383346E7,-1.2586166E7,2.0133178E9,2.9242236E7,-5.7810934E4,3.830464E5,-9.250592E6,-1.412141E7,-1.0346155E7,7.566059E5,2.0089595E5,-1.3837276E7,3.374244E5,8.769543E6,3.847567E7,-1.8159314E6,-1.1426157E5,-1.4178816E5,-1.1677311E7,5.329718E4,-1.1221388E7,-1.4067916E5,-6.8606945E4,6.091727E4,-8.8156234E4,-5.1699185E3,-1.3651761E5,-1.22222125E5,-1.4153767E3],"categories":[],"categories_nodes":[],"categories_segments":[],"categories_sizes":[],"default_left":[0,0,0,0,0,0,0,0,0,0,0,0,0,0,0,0,0,0,0,0,0,0,0,0,0,0,0,0,0,0,0,0,0,0,0,0,0],"id":44,"left_children":[1,3,5,7,9,11,13,15,17,19,21,-1,-1,-1,23,25,27,-1,-1,29,-1,-1,-1,31,-1,-1,33,-1,35,-1,-1,-1,-1,-1,-1,-1,-1],"loss_changes":[6.417217E18,2.0215258E18,1.2789035E19,1.7962825E16,2.2519153E19,6.4640596E18,3.6183247E15,1.5159517E14,3.2102733E13,4.2344458E15,9.132106E18,0E0,0E0,0E0,1.0864757E14,1.5290084E12,4.028078E14,0E0,0E0,6.463926E12,0E0,0E0,0E0,2.1975591E14,0E0,0E0,7.201133E14,0E0,2.644057E14,0E0,0E0,0E0,0E0,0E0,0E0,0E0,0E0],"parents":[2147483647,0,0,1,1,2,2,3,3,4,4,5,5,6,6,7,7,8,8,9,9,10,10,14,14,15,15,16,16,19,19,23,23,26,26,28,28],"right_children":[2,4,6,8,10,12,14,16,18,20,22,-1,-1,-1,24,26,28,-1,-1,30,-1,-1,-1,32,-1,-1,34,-1,36,-1,-1,-1,-1,-1,-1,-1,-1],"split_conditions":[2.562321E7,2.023E3,1.5635E5,6.969583E6,1E0,1.2246469E-16,-5E-1,6.961883E5,-2.4492937E-16,5.3827374E9,7E1,2.9242236E7,-5.7810934E4,3.830464E5,1.622675E6,1.65E5,9.9E2,7.566059E5,2.0089595E5,2.86476E5,3.374244E5,8.769543E6,3.847567E7,2.023E3,-1.1426157E5,-1.4178816E5,1.713E5,5.329718E4,2.05125E5,-1.4067916E5,-6.8606945E4,6.091727E4,-8.8156234E4,-5.1699185E3,-1.3651761E5,-1.22222125E5,-1.4153767E3],"split_indices":[7,0,6,8,2,1,2,7,1,6,3,0,0,0,5,6,6,0,0,5,0,0,0,0,0,0,6,0,6,0,0,0,0,0,0,0,0],"split_type":[0,0,0,0,0,0,0,0,0,0,0,0,0,0,0,0,0,0,0,0,0,0,0,0,0,0,0,0,0,0,0,0,0,0,0,0,0],"sum_hessian":[1.296E3,1.285E3,1.1E1,1.216E3,6.9E1,3E0,8E0,1.214E3,2E0,6.4E1,5E0,2E0,1E0,1E0,7E0,1.19E3,2.4E1,1E0,1E0,6.3E1,1E0,4E0,1E0,2E0,5E0,1.158E3,3.2E1,1E0,2.3E1,6E1,3E0,1E0,1E0,5E0,2.7E1,2.1E1,2E0],"tree_param":{"num_deleted":"0","num_feature":"9","num_nodes":"37","size_leaf_vector":"1"}},{"base_weights":[2.456262E6,-4.29217E6,7.2545856E8,-1.3735655E7,1.5995088E8,2.1756705E9,3.1333722E5,-1.391509E7,6.3514292E7,-1.2458333E7,2.0010588E9,2.9047288E7,-5.7521883E4,3.8113112E5,-9.175774E6,-1.4029672E5,-1.1672033E7,7.528229E5,1.9989147E5,-1.3702173E7,3.3573728E5,8.699387E6,3.8283296E7,-1.806852E6,-1.1330939E5,-1.906987E6,-1.2454004E7,-1.3929542E5,-6.80924E4,6.061268E4,-8.771546E4,-1.347351E5,2.7962812E5,5.3030688E4,-1.2844854E5],"categories":[],"categories_nodes":[],"categories_segments":[],"categories_sizes":[],"default_left":[0,0,0,0,0,0,0,0,0,0,0,0,0,0,0,0,0,0,0,0,0,0,0,0,0,0,0,0,0,0,0,0,0,0,0],"id":45,"left_children":[1,3,5,7,9,11,13,15,17,19,21,-1,-1,-1,23,-1,25,-1,-1,27,-1,-1,-1,29,-1,31,33,-1,-1,-1,-1,-1,-1,-1,-1],"loss_changes":[6.3313475E18,1.9968176E18,1.261869E19,1.7753093E16,2.224461E19,6.378245E18,3.5778935E15,1.4851997E14,3.1782758E13,4.181709E15,9.070764E18,0E0,0E0,0E0,1.0657659E14,0E0,4.725892E14,0E0,0E0,5.4546085E12,0E0,0E0,0E0,2.1756385E14,0E0,2.4496955E15,4.845378E14,0E0,0E0,0E0,0E0,0E0,0E0,0E0,0E0],"parents":[2147483647,0,0,1,1,2,2,3,3,4,4,5,5,6,6,7,7,8,8,9,9,10,10,14,14,16,16,19,19,23,23,25,25,26,26],"right_children":[2,4,6,8,10,12,14,16,18,20,22,-1,-1,-1,24,-1,26,-1,-1,28,-1,-1,-1,30,-1,32,34,-1,-1,-1,-1,-1,-1,-1,-1],"split_conditions":[2.562321E7,2.023E3,1.5635E5,6.969583E6,1E0,1.2246469E-16,-5E-1,1.52507E5,-2.4492937E-16,5.3827374E9,7E1,2.9047288E7,-5.7521883E4,3.8113112E5,1.622675E6,-1.4029672E5,1.6294575E5,7.528229E5,1.9989147E5,2.86476E5,3.3573728E5,8.699387E6,3.8283296E7,2.023E3,-1.1330939E5,5E-1,9.9E2,-1.3929542E5,-6.80924E4,6.061268E4,-8.771546E4,-1.347351E5,2.7962812E5,5.3030688E4,-1.2844854E5],"split_indices":[7,0,6,8,2,1,2,8,1,6,3,0,0,0,5,0,8,0,0,5,0,0,0,0,0,1,6,0,0,0,0,0,0,0,0],"split_type":[0,0,0,0,0,0,0,0,0,0,0,0,0,0,0,0,0,0,0,0,0,0,0,0,0,0,0,0,0,0,0,0,0,0,0],"sum_hessian":[1.296E3,1.285E3,1.1E1,1.216E3,6.9E1,3E0,8E0,1.214E3,2E0,6.4E1,5E0,2E0,1E0,1E0,7E0,1.15E3,6.4E1,1E0,1E0,6.3E1,1E0,4E0,1E0,2E0,5E0,5E0,5.9E1,6E1,3E0,1E0,1E0,4E0,1E0,1E0,5.8E1],"tree_param":{"num_deleted":"0","num_feature":"9","num_nodes":"35","size_leaf_vector":"1"}},{"base_weights":[2.4912398E6,-4.2119285E6,7.206398E8,-1.3597573E7,1.5902438E8,2.1611612E9,3.3695066E5,-1.3775997E7,6.3196716E7,-1.2331775E7,1.9888787E9,2.885364E7,-5.7234273E4,3.7922547E5,-9.101568E6,-1.3840974E7,-1.0129455E7,7.490587E5,1.9889202E5,-1.3568393E7,3.340586E5,8.629792E6,3.809188E7,-1.7978174E6,-1.1236515E5,-1.3897127E5,-1.144941E7,5.276554E4,-1.0991229E7,-1.3661384E5,-3.854959E4,6.0309617E4,-8.7276875E4,-1.3636602E5,-1.37746455E4,-1.1982937E5,-5.4961664E2],"categories":[],"categories_nodes":[],"categories_segments":[],"categories_sizes":[],"default_left":[0,0,0,0,0,0,0,0,0,0,0,0,0,0,0,0,0,0,0,0,0,0,0,0,0,0,0,0,0,0,0,0,0,0,0,0,0],"id":46,"left_children":[1,3,5,7,9,11,13,15,17,19,21,-1,-1,-1,23,25,27,-1,-1,29,-1,-1,-1,31,-1,-1,33,-1,35,-1,-1,-1,-1,-1,-1,-1,-1],"loss_changes":[6.2466257E18,1.9724149E18,1.2450612E19,1.7545886E16,2.1973502E19,6.2935716E18,3.5379254E15,1.4767816E14,3.146493E13,4.1296604E15,9.009662E18,0E0,0E0,0E0,1.0454373E14,8.246337E11,3.8990787E14,0E0,0E0,5.145371E12,0E0,0E0,0E0,2.1539363E14,0E0,0E0,7.0818186E14,0E0,2.5963534E14,0E0,0E0,0E0,0E0,0E0,0E0,0E0,0E0],"parents":[2147483647,0,0,1,1,2,2,3,3,4,4,5,5,6,6,7,7,8,8,9,9,10,10,14,14,15,15,16,16,19,19,23,23,26,26,28,28],"right_children":[2,4,6,8,10,12,14,16,18,20,22,-1,-1,-1,24,26,28,-1,-1,30,-1,-1,-1,32,-1,-1,34,-1,36,-1,-1,-1,-1,-1,-1,-1,-1],"split_conditions":[2.562321E7,2.023E3,1.5635E5,6.969583E6,1E0,1.2246469E-16,-5E-1,6.961883E5,-2.4492937E-16,5.3827374E9,7E1,2.885364E7,-5.7234273E4,3.7922547E5,1.622675E6,1.65E5,9.9E2,7.490587E5,1.9889202E5,1.622675E6,3.340586E5,8.629792E6,3.809188E7,2.023E3,-1.1236515E5,-1.3897127E5,2.022E3,5.276554E4,2.05125E5,-1.3661384E5,-3.854959E4,6.0309617E4,-8.7276875E4,-1.3636602E5,-1.37746455E4,-1.1982937E5,-5.4961664E2],"split_indices":[7,0,6,8,2,1,2,7,1,6,3,0,0,0,5,6,6,0,0,5,0,0,0,0,0,0,0,0,6,0,0,0,0,0,0,0,0],"split_type":[0,0,0,0,0,0,0,0,0,0,0,0,0,0,0,0,0,0,0,0,0,0,0,0,0,0,0,0,0,0,0,0,0,0,0,0,0],"sum_hessian":[1.296E3,1.285E3,1.1E1,1.216E3,6.9E1,3E0,8E0,1.214E3,2E0,6.4E1,5E0,2E0,1E0,1E0,7E0,1.19E3,2.4E1,1E0,1E0,6.3E1,1E0,4E0,1E0,2E0,5E0,1.158E3,3.2E1,1E0,2.3E1,6.2E1,1E0,1E0,1E0,2.6E1,6E0,2.1E1,2E0],"tree_param":{"num_deleted":"0","num_feature":"9","num_nodes":"37","size_leaf_vector":"1"}},{"base_weights":[2.5253158E6,-4.1328952E6,7.158532E8,-1.3461112E7,1.5810386E8,2.1467489E9,3.6023588E5,-1.3638531E7,6.2880732E7,-1.2206013E7,1.9767768E9,2.8661284E7,-5.6948105E4,3.7732934E5,-9.027969E6,-1.3702808E7,-1.0030866E7,7.4531344E5,1.9789756E5,-1.3435445E7,3.3238828E5,8.560754E6,3.790142E7,-1.7888286E6,-1.11428766E5,-1.3758275E5,-1.1339465E7,5.2501707E4,-1.0886333E7,-1.3658156E5,-6.6802266E4,6.000807E4,-8.68405E4,-1.3279784E5,-3.947335E3,-1.1868554E5,-5.4595E2],"categories":[],"categories_nodes":[],"categories_segments":[],"categories_sizes":[],"default_left":[0,0,0,0,0,0,0,0,0,0,0,0,0,0,0,0,0,0,0,0,0,0,0,0,0,0,0,0,0,0,0,0,0,0,0,0,0],"id":47,"left_children":[1,3,5,7,9,11,13,15,17,19,21,-1,-1,-1,23,25,27,-1,-1,29,-1,-1,-1,31,-1,-1,33,-1,35,-1,-1,-1,-1,-1,-1,-1,-1],"loss_changes":[6.1630436E18,1.9483346E18,1.2284776E19,1.7341274E16,2.1705787E19,6.2100175E18,3.4984146E15,1.4429372E14,3.1151398E13,4.0782175E15,8.9487954E18,0E0,0E0,0E0,1.0254825E14,1.03079215E11,3.839655E14,0E0,0E0,5.0465866E12,0E0,0E0,0E0,2.132451E14,0E0,0E0,6.9555465E14,0E0,2.546921E14,0E0,0E0,0E0,0E0,0E0,0E0,0E0,0E0],"parents":[2147483647,0,0,1,1,2,2,3,3,4,4,5,5,6,6,7,7,8,8,9,9,10,10,14,14,15,15,16,16,19,19,23,23,26,26,28,28],"right_children":[2,4,6,8,10,12,14,16,18,20,22,-1,-1,-1,24,26,28,-1,-1,30,-1,-1,-1,32,-1,-1,34,-1,36,-1,-1,-1,-1,-1,-1,-1,-1],"split_conditions":[2.562321E7,2.023E3,1.5635E5,6.969583E6,1E0,1.2246469E-16,-5E-1,6.961883E5,-2.4492937E-16,5.3827374E9,7E1,2.8661284E7,-5.6948105E4,3.7732934E5,1.622675E6,1.65E5,9.9E2,7.4531344E5,1.9789756E5,2.86476E5,3.3238828E5,8.560754E6,3.790142E7,2.023E3,-1.11428766E5,-1.3758275E5,1.06E2,5.2501707E4,2.05125E5,-1.3658156E5,-6.6802266E4,6.000807E4,-8.68405E4,-1.3279784E5,-3.947335E3,-1.1868554E5,-5.4595E2],"split_indices":[7,0,6,8,2,1,2,7,1,6,3,0,0,0,5,6,6,0,0,5,0,0,0,0,0,0,3,0,6,0,0,0,0,0,0,0,0],"split_type":[0,0,0,0,0,0,0,0,0,0,0,0,0,0,0,0,0,0,0,0,0,0,0,0,0,0,0,0,0,0,0,0,0,0,0,0,0],"sum_hessian":[1.296E3,1.285E3,1.1E1,1.216E3,6.9E1,3E0,8E0,1.214E3,2E0,6.4E1,5E0,2E0,1E0,1E0,7E0,1.19E3,2.4E1,1E0,1E0,6.3E1,1E0,4E0,1E0,2E0,5E0,1.158E3,3.2E1,1E0,2.3E1,6E1,3E0,1E0,1E0,2.7E1,5E0,2.1E1,2E0],"tree_param":{"num_deleted":"0","num_feature":"9","num_nodes":"37","size_leaf_vector":"1"}},{"base_weights":[2.5586878E6,-4.0548682E6,7.1109824E8,-1.3326006E7,1.5718842E8,2.1324324E9,3.8319688E5,-1.3502427E7,6.2566332E7,-1.2081968E7,1.9647528E9,2.8470208E7,-5.6663363E4,3.7544272E5,-8.954972E6,-1.356601E5,-9.933226E6,7.415869E5,1.9690808E5,-1.3304268E7,3.3072634E5,8.492268E6,3.771191E7,-1.7798846E6,-1.10500195E5,5.22392E4,-1.0782437E7,-1.3523814E5,-6.630125E4,5.9708027E4,-8.64063E4,-1.17552625E5,-5.4231E2],"categories":[],"categories_nodes":[],"categories_segments":[],"categories_sizes":[],"default_left":[0,0,0,0,0,0,0,0,0,0,0,0,0,0,0,0,0,0,0,0,0,0,0,0,0,0,0,0,0,0,0,0,0],"id":48,"left_children":[1,3,5,7,9,11,13,15,17,19,21,-1,-1,-1,23,-1,25,-1,-1,27,-1,-1,-1,29,-1,-1,31,-1,-1,-1,-1,-1,-1],"loss_changes":[6.080581E18,1.9245472E18,1.2121146E19,1.7139187E16,2.1441436E19,6.127573E18,3.459355E15,1.40978E14,3.0838939E13,4.0275197E15,8.8881793E18,0E0,0E0,0E0,1.0058948E14,0E0,3.7811684E14,0E0,0E0,4.113505E12,0E0,0E0,0E0,2.11118E14,0E0,0E0,2.4984308E14,0E0,0E0,0E0,0E0,0E0,0E0],"parents":[2147483647,0,0,1,1,2,2,3,3,4,4,5,5,6,6,7,7,8,8,9,9,10,10,14,14,16,16,19,19,23,23,26,26],"right_children":[2,4,6,8,10,12,14,16,18,20,22,-1,-1,-1,24,-1,26,-1,-1,28,-1,-1,-1,30,-1,-1,32,-1,-1,-1,-1,-1,-1],"split_conditions":[2.562321E7,2.023E3,1.5635E5,6.969583E6,1E0,1.2246469E-16,-5E-1,6.961883E5,-2.4492937E-16,5.3827374E9,7E1,2.8470208E7,-5.6663363E4,3.7544272E5,1.622675E6,-1.356601E5,9.9E2,7.415869E5,1.9690808E5,2.86476E5,3.3072634E5,8.492268E6,3.771191E7,2.023E3,-1.10500195E5,